// #### Generated By: http://www.Raphaelfonts.com ####
/*!
 * The following copyright notice may not be removed under any circumstances.
 *
 * Copyright:
 * Copyright © 1988, 1990, 1993, 2003 Linotype Library GmbH, www.linotype.com. All
 * rights reserved. Copyright © 1988, 1990, 1993 Adobe Systems Incorporated. All
 * Rights Reserved.
 *
 * Trademark:
 * Helvetica, Neue Helvetica is a trademark of Heidelberger Druckmaschinen AG which
 * may be registered in certain jurisdictions, exclusively licensed through
 * Linotype Library GmbH, a wholly owned subsidiary of Heidelberger Druckmaschinen
 * AG.
 *
 * Full name:
 * HelveticaNeueLTPro-Bd
 *
 * Description:
 * Copyright © 1988, 1990, 1993, 2003 Linotype Library GmbH, www.linotype.com. All
 * rights reserved. Copyright © 1988, 1990, 1993 Adobe Systems Incorporated. All
 * Rights Reserved.
 *
 * Designer:
 * Linotype Library GmbH
 *
 * Vendor URL:
 * http://www.Linotype.com
 */
Raphael.registerFont({"w":556,"face":{"font-family":"Helvetica Neue LT Pro 75 Bold","font-weight":700,"font-stretch":"normal","units-per-em":"1000","panose-1":"2 11 8 4 2 2 2 2 2 4","ascent":"714","descent":"-286","x-height":"14","bbox":"-57 -988 944 217.657","underline-thickness":"50","underline-position":"-50","stemh":"107","stemv":"142","unicode-range":"U+000D-U+00FF"},"glyphs":{" ":{"w":278},"!":{"d":"61,0r0,-154r157,0r0,154r-157,0xm213,-714r0,192r-39,308r-71,0r-38,-308r0,-192r148,0","w":278},"\"":{"d":"85,-393r0,-321r107,0r0,321r-107,0xm271,-393r0,-321r107,0r0,321r-107,0","w":463},"#":{"d":"339,-412r-96,0r-18,124r97,0xm88,0r28,-198r-83,0r0,-90r95,0r18,-124r-83,0r0,-90r95,0r28,-198r97,0r-28,198r97,0r27,-198r97,0r-27,198r74,0r0,90r-87,0r-17,124r74,0r0,90r-87,0r-27,198r-97,0r27,-198r-96,0r-28,198r-97,0"},"$":{"d":"248,-309v-111,-30,-232,-60,-232,-208v0,-137,112,-206,232,-214r0,-77r59,0r0,77v119,13,217,74,225,213r-142,0v-1,-53,-38,-96,-83,-96r0,177r51,13v196,54,199,165,199,232v0,57,-51,196,-250,209r0,85r-59,0r0,-85v-149,-11,-234,-92,-249,-249r142,0v-1,75,46,120,107,132r0,-209xm307,-292r0,192v49,-5,108,-34,108,-98v0,-52,-29,-73,-108,-94xm248,-451r0,-163v-45,0,-90,27,-90,83v0,44,26,65,90,80"},"%":{"d":"693,-182v0,43,0,121,64,121v62,0,66,-78,66,-120v0,-39,-3,-120,-62,-120v-64,0,-68,73,-68,119xm591,-183v0,-108,53,-193,170,-193v124,0,164,88,164,197v0,108,-52,193,-169,193v-123,0,-165,-88,-165,-197xm254,22r414,-744r85,0r-412,744r-87,0xm177,-514v0,43,0,115,64,115v62,0,66,-72,66,-114v0,-40,-3,-126,-62,-126v-64,0,-68,79,-68,125xm75,-516v0,-109,53,-198,170,-198v124,0,164,92,164,202v0,109,-52,188,-169,188v-123,0,-165,-82,-165,-192","w":1000},"&":{"d":"522,0r-58,-71v-57,56,-120,85,-201,85v-129,0,-231,-79,-231,-214v0,-100,76,-168,160,-207v-39,-47,-68,-89,-68,-152v0,-99,90,-163,186,-163v108,0,196,59,196,171v0,84,-55,139,-127,178r92,113v15,-27,22,-56,26,-85r123,0v-7,64,-29,125,-69,176r145,169r-174,0xm389,-166r-122,-149v-51,21,-100,60,-100,118v0,52,49,94,102,94v51,0,87,-26,120,-63xm382,-559v0,-37,-30,-68,-65,-68v-35,0,-64,26,-64,63v0,45,29,74,56,107v40,-25,73,-50,73,-102","w":685},"(":{"d":"184,-731r119,0v-147,284,-145,627,-1,913r-118,0v-173,-274,-176,-637,0,-913","w":296},")":{"d":"112,182r-119,0v148,-284,145,-626,1,-913r118,0v173,273,177,639,0,913","w":296},"*":{"d":"242,-714r0,125r116,-44r27,77r-118,39r74,98r-66,49r-74,-103r-70,103r-67,-49r74,-98r-116,-39r27,-77r113,44r0,-125r80,0","w":407},"+":{"d":"354,-505r0,199r199,0r0,107r-199,0r0,199r-107,0r0,-199r-199,0r0,-107r199,0r0,-199r107,0","w":600},",":{"d":"61,0r0,-154r157,0r0,154v0,92,-71,153,-156,166r0,-72v41,-8,74,-49,71,-94r-72,0","w":278},"-":{"d":"53,-212r0,-122r301,0r0,122r-301,0","w":407},".":{"d":"60,0r0,-154r157,0r0,154r-157,0","w":278},"\/":{"d":"-11,17r279,-748r114,0r-279,748r-114,0","w":371},"0":{"d":"163,-353v0,79,0,250,114,250v116,0,116,-171,116,-250v0,-73,0,-244,-116,-244v-115,0,-114,171,-114,244xm21,-353v0,-273,117,-361,256,-361v140,0,258,88,258,361v0,279,-118,367,-258,367v-139,0,-256,-88,-256,-367"},"1":{"d":"392,-700r0,700r-142,0r0,-454r-176,0r0,-107v99,3,189,-32,205,-139r113,0"},"2":{"d":"173,-431r-136,0v-5,-160,86,-283,254,-283v128,0,240,82,240,219v0,212,-225,229,-327,373r331,0r0,122r-514,0v0,-163,100,-230,221,-313v61,-43,147,-85,147,-171v0,-67,-44,-108,-105,-108v-84,0,-111,87,-111,161"},"3":{"d":"228,-317r0,-100v61,5,149,-7,149,-87v0,-60,-47,-93,-99,-93v-72,0,-109,53,-108,125r-135,0v5,-144,97,-242,242,-242v112,0,235,69,235,194v0,69,-37,122,-98,145v77,17,124,80,124,159v0,147,-124,230,-260,230v-157,0,-263,-94,-260,-255r135,0v3,76,41,138,123,138v64,0,114,-43,114,-110v0,-106,-93,-104,-162,-104"},"4":{"d":"312,-279r0,-243r-3,0r-181,243r184,0xm312,0r0,-162r-296,0r0,-130r304,-408r127,0r0,421r93,0r0,117r-93,0r0,162r-135,0"},"5":{"d":"500,-700r0,117r-289,0r-28,159r2,2v39,-39,81,-54,137,-54v138,0,216,107,216,238v0,144,-120,252,-260,252v-136,0,-257,-75,-260,-222r142,0v7,63,52,105,115,105v74,0,121,-65,121,-135v0,-73,-45,-131,-121,-131v-51,0,-79,17,-107,56r-128,0r69,-387r391,0"},"6":{"d":"286,-363v-76,0,-113,61,-113,130v0,65,41,130,113,130v68,0,107,-64,107,-128v0,-66,-34,-132,-107,-132xm523,-520r-135,0v-9,-47,-45,-87,-94,-87v-101,-1,-136,141,-132,215v70,-110,239,-96,319,-6v37,43,54,100,54,156v0,143,-99,256,-245,256v-212,0,-269,-185,-269,-362v0,-172,76,-366,275,-366v121,0,211,70,227,194"},"7":{"d":"517,-700r0,122v-147,129,-226,391,-229,578r-152,0v16,-208,102,-407,235,-568r-332,0r0,-132r478,0"},"8":{"d":"172,-510v0,60,50,92,107,92v59,0,105,-32,105,-92v0,-36,-17,-97,-105,-97v-57,0,-107,34,-107,97xm43,-523v0,-126,122,-191,236,-191v174,0,234,120,234,188v0,71,-39,122,-102,149v84,19,131,83,131,171v0,148,-131,220,-262,220v-135,0,-266,-68,-266,-219v0,-91,53,-149,132,-174v-68,-19,-103,-75,-103,-144xm156,-212v0,72,56,119,124,119v68,0,120,-48,120,-118v0,-67,-54,-112,-120,-112v-69,0,-124,39,-124,111"},"9":{"d":"270,-337v76,0,113,-61,113,-130v0,-65,-41,-130,-113,-130v-68,0,-107,64,-107,128v0,66,34,132,107,132xm33,-180r135,0v9,47,45,87,94,87v103,1,134,-141,132,-215v-70,110,-239,96,-319,6v-37,-43,-54,-100,-54,-156v0,-143,98,-256,245,-256v212,0,269,185,269,362v0,172,-76,366,-275,366v-121,0,-211,-70,-227,-194"},":":{"d":"218,-508r0,154r-157,0r0,-154r157,0xm61,0r0,-154r157,0r0,154r-157,0","w":278},";":{"d":"218,-508r0,154r-157,0r0,-154r157,0xm61,0r0,-154r157,0r0,154v0,92,-71,153,-156,166r0,-72v41,-8,74,-49,71,-94r-72,0","w":278},"<":{"d":"554,-514r0,115r-367,146r367,146r0,115r-508,-202r0,-118","w":600},"=":{"d":"553,-199r0,107r-505,0r0,-107r505,0xm553,-413r0,107r-505,0r0,-107r505,0","w":600},">":{"d":"46,8r0,-115r367,-146r-367,-146r0,-115r508,202r0,118","w":600},"?":{"d":"193,0r0,-154r157,0r0,154r-157,0xm179,-484r-147,0v3,-143,96,-247,243,-247v188,0,249,117,249,193v0,191,-165,165,-182,286r0,38r-135,0r0,-45v14,-173,160,-157,160,-265v0,-61,-32,-90,-85,-90v-72,0,-103,59,-103,130"},"@":{"d":"622,-545r-63,258v-6,21,-19,66,9,66v57,0,118,-76,118,-184v0,-159,-119,-246,-271,-246v-172,0,-283,127,-283,296v0,175,123,292,295,292v84,0,163,-30,215,-82r84,0v-68,104,-180,162,-305,162v-213,0,-385,-161,-385,-374v0,-211,172,-374,380,-374v181,0,348,121,348,305v0,205,-171,290,-235,290v-46,0,-67,-28,-75,-57v-80,123,-265,31,-265,-113v0,-126,86,-255,218,-255v43,0,94,18,117,70r16,-54r82,0xm291,-319v0,53,31,89,78,89v72,0,123,-82,123,-151v0,-49,-34,-85,-77,-85v-73,0,-124,80,-124,147","w":800},"A":{"d":"342,-538r-93,262r185,0r-90,-262r-2,0xm-7,0r271,-714r161,0r267,714r-163,0r-54,-159r-267,0r-56,159r-159,0","w":685},"B":{"d":"226,-592r0,167v108,-6,258,33,255,-85v-3,-118,-148,-73,-255,-82xm69,0r0,-714r336,0v136,0,228,44,228,177v0,71,-34,118,-97,149v88,25,131,92,131,181v0,145,-123,207,-252,207r-346,0xm226,-318r0,196v121,-9,280,39,284,-94v4,-137,-160,-96,-284,-102","w":704},"C":{"d":"697,-474r-152,0v-11,-71,-79,-125,-156,-125v-141,0,-194,120,-194,245v0,119,53,239,194,239v96,0,150,-65,162,-160r152,0v-16,179,-138,292,-314,292v-220,0,-351,-165,-351,-371v0,-212,131,-377,351,-377v156,0,289,92,308,257","w":741},"D":{"d":"226,-582r0,450v189,7,318,9,318,-214v0,-144,-51,-236,-206,-236r-112,0xm69,0r0,-714r308,0v185,0,324,117,324,353v0,207,-106,361,-324,361r-308,0","w":741},"E":{"d":"69,0r0,-714r534,0r0,132r-377,0r0,153r346,0r0,122r-346,0r0,175r385,0r0,132r-542,0","w":648},"F":{"d":"69,0r0,-714r502,0r0,132r-345,0r0,165r299,0r0,122r-299,0r0,295r-157,0","w":593},"G":{"d":"601,0r-16,-81v-56,72,-127,98,-196,98v-220,0,-351,-165,-351,-371v0,-212,131,-377,351,-377v146,0,285,89,301,252r-150,0v-19,-80,-76,-120,-151,-120v-141,0,-194,120,-194,245v0,119,53,239,194,239v103,0,161,-54,170,-154r-158,0r0,-117r300,0r0,386r-100,0","w":759},"H":{"d":"69,0r0,-714r157,0r0,274r289,0r0,-274r157,0r0,714r-157,0r0,-308r-289,0r0,308r-157,0","w":741},"I":{"d":"69,0r0,-714r157,0r0,714r-157,0","w":295},"J":{"d":"487,-714r0,489v0,92,-25,242,-238,242v-119,0,-235,-65,-235,-221r0,-62r142,0v-2,83,5,152,91,151v83,0,83,-66,83,-117r0,-482r157,0"},"K":{"d":"69,0r0,-714r157,0r0,296r279,-296r196,0r-279,282r306,432r-197,0r-215,-321r-90,91r0,230r-157,0","w":722},"L":{"d":"69,0r0,-714r157,0r0,582r348,0r0,132r-505,0","w":593},"M":{"d":"69,0r0,-714r221,0r167,491r2,0r158,-491r221,0r0,714r-147,0r0,-506r-2,0r-175,506r-121,0r-175,-501r-2,0r0,501r-147,0","w":907},"N":{"d":"69,0r0,-714r156,0r298,479r2,0r0,-479r147,0r0,714r-157,0r-297,-478r-2,0r0,478r-147,0","w":741},"O":{"d":"195,-354v0,119,53,239,194,239v141,0,194,-120,194,-239v0,-125,-53,-245,-194,-245v-141,0,-194,120,-194,245xm38,-354v0,-212,131,-377,351,-377v220,0,351,165,351,377v0,206,-131,371,-351,371v-220,0,-351,-165,-351,-371","w":778},"P":{"d":"226,-592r0,214v122,-5,260,30,260,-107v0,-137,-138,-102,-260,-107xm69,0r0,-714r322,0v179,0,247,113,247,229v0,116,-68,229,-247,229r-165,0r0,256r-157,0","w":667},"Q":{"d":"385,-186r73,-78r81,74v27,-36,44,-89,44,-164v0,-125,-53,-245,-194,-245v-141,0,-194,120,-194,245v0,119,53,239,194,239v23,0,52,1,63,-10xm736,-10r-73,77r-101,-92v-47,27,-105,42,-173,42v-220,0,-351,-165,-351,-371v0,-212,131,-377,351,-377v220,0,351,165,351,377v0,104,-33,195,-93,263","w":778},"R":{"d":"226,-592r0,201r172,0v71,0,108,-30,108,-102v0,-69,-37,-99,-108,-99r-172,0xm69,0r0,-714r385,0v128,0,209,89,209,197v0,86,-37,145,-113,181v77,21,99,94,104,167v3,45,1,130,30,169r-157,0v-18,-45,-17,-114,-25,-171v-11,-75,-40,-108,-119,-108r-157,0r0,279r-157,0","w":722},"S":{"d":"24,-237r152,0v0,95,74,132,158,132v55,0,139,-16,139,-89v0,-78,-108,-91,-212,-118v-106,-28,-213,-71,-213,-203v0,-147,138,-216,267,-216v149,0,286,65,286,230r-152,0v-5,-85,-65,-108,-141,-108v-50,0,-108,21,-108,81v0,55,34,64,213,108v53,13,212,47,212,208v0,131,-102,229,-297,229v-158,0,-307,-78,-304,-254","w":649},"T":{"d":"227,0r0,-582r-214,0r0,-132r585,0r0,132r-214,0r0,582r-157,0","w":611},"U":{"d":"675,-714r0,444v0,193,-114,287,-305,287v-193,0,-304,-92,-304,-287r0,-444r157,0r0,444v0,78,20,155,147,155v112,0,148,-48,148,-155r0,-444r157,0","w":741},"V":{"d":"638,-714r-237,714r-177,0r-232,-714r162,0r159,502r2,0r161,-502r162,0","w":630},"W":{"d":"941,-714r-192,714r-156,0r-121,-486r-2,0r-119,486r-159,0r-189,-714r157,0r113,486r2,0r124,-486r147,0r122,492r2,0r117,-492r154,0","w":944},"X":{"d":"-6,0r250,-374r-230,-340r182,0r140,228r145,-228r172,0r-229,341r249,373r-187,0r-156,-247r-159,247r-177,0","w":667},"Y":{"d":"254,0r0,-278r-263,-436r177,0r167,282r166,-282r175,0r-265,440r0,274r-157,0","w":667},"Z":{"d":"23,0r0,-124r383,-458r-353,0r0,-132r562,0r0,124r-383,458r393,0r0,132r-602,0","w":648},"[":{"d":"68,182r0,-913r264,0r0,112r-122,0r0,689r122,0r0,112r-264,0","w":333},"\\":{"d":"103,-731r279,748r-114,0r-279,-748r114,0","w":371},"]":{"d":"265,-731r0,913r-264,0r0,-112r122,0r0,-689r-122,0r0,-112r264,0","w":333},"^":{"d":"61,-315r172,-385r134,0r172,385r-117,0r-122,-275r-122,275r-117,0","w":600},"_":{"d":"0,125r0,-50r500,0r0,50r-500,0","w":500},"a":{"d":"190,-358r-142,0v8,-132,127,-173,243,-173v103,0,227,23,227,147r0,269v0,47,5,94,18,115r-144,0v-5,-16,-9,-33,-10,-50v-101,104,-353,90,-350,-91v3,-235,344,-109,344,-225v0,-60,-42,-70,-92,-70v-55,0,-89,22,-94,78xm376,-253v-53,43,-204,5,-202,106v0,52,41,66,87,66v111,0,115,-87,115,-119r0,-53","w":574},"b":{"d":"433,-258v0,-88,-37,-166,-121,-166v-84,0,-121,78,-121,166v0,86,37,165,121,165v84,0,121,-79,121,-165xm54,0r0,-714r142,0r0,260r2,0v35,-53,99,-77,163,-77v103,0,214,83,214,272v0,189,-111,273,-214,273v-78,0,-137,-26,-172,-80r0,66r-135,0","w":611},"c":{"d":"545,-335r-139,0v-9,-59,-44,-89,-105,-89v-91,0,-121,92,-121,168v0,75,29,163,118,163v67,0,104,-41,113,-105r137,0v-19,137,-112,212,-249,212v-156,0,-261,-110,-261,-265v0,-161,96,-280,264,-280v122,0,235,64,243,196","w":574},"d":{"d":"421,-260v0,-84,-30,-164,-122,-164v-93,0,-125,81,-125,165v0,81,37,166,125,166v93,0,122,-82,122,-167xm423,0v-2,-21,4,-49,-2,-66v-33,56,-90,80,-157,80v-156,0,-232,-133,-232,-277v0,-139,77,-268,229,-268v63,0,119,29,155,77r0,-260r142,0r0,714r-135,0","w":611},"e":{"d":"171,-314r231,0v-13,-72,-44,-110,-113,-110v-92,0,-115,70,-118,110xm544,-224r-373,0v4,91,47,131,127,131v57,0,103,-35,112,-67r125,0v-40,123,-125,174,-242,174v-163,0,-264,-112,-264,-272v0,-155,107,-273,264,-273v176,0,262,148,251,307","w":574},"f":{"d":"85,0r0,-422r-85,0r0,-95r85,0v-9,-123,41,-194,173,-197v25,0,51,3,75,4r0,106v-54,-6,-113,-10,-106,56r0,31r98,0r0,95r-98,0r0,422r-142,0","w":333},"g":{"d":"295,-122v81,0,121,-69,121,-143v0,-84,-29,-159,-121,-159v-80,0,-115,70,-115,147v0,74,27,155,115,155xm551,-517r0,484v0,85,-31,229,-268,229v-102,0,-220,-49,-228,-166r141,0v13,53,55,71,106,71v104,0,126,-93,112,-196v-31,55,-92,80,-155,80v-156,0,-221,-118,-221,-260v0,-134,78,-256,222,-256v70,0,117,27,156,83r0,-69r135,0","w":611},"h":{"d":"54,0r0,-714r142,0r0,269r3,0v36,-59,98,-86,151,-86v151,0,189,85,189,213r0,318r-142,0r0,-292v0,-85,-24,-127,-91,-127v-77,0,-110,43,-110,148r0,271r-142,0","w":593},"i":{"d":"200,-714r0,117r-142,0r0,-117r142,0xm58,0r0,-517r142,0r0,517r-142,0","w":258},"j":{"d":"209,-714r0,117r-142,0r0,-117r142,0xm-19,178r0,-117v37,8,86,9,86,-42r0,-536r142,0r0,543v0,106,-39,156,-182,156v-15,0,-31,-1,-46,-4","w":278},"k":{"d":"67,0r0,-714r142,0r0,383r179,-186r168,0r-195,190r217,327r-172,0r-142,-231r-55,53r0,178r-142,0","w":574},"l":{"d":"58,0r0,-714r142,0r0,714r-142,0","w":258},"m":{"d":"58,0r0,-517r134,0v2,22,-4,52,2,70v63,-105,253,-121,309,2v31,-45,84,-86,156,-86v110,0,189,51,189,185r0,346r-142,0r0,-293v0,-69,-6,-126,-87,-126v-80,0,-95,67,-95,131r0,288r-142,0r0,-290v0,-60,4,-129,-86,-129v-28,0,-96,18,-96,119r0,300r-142,0","w":906},"n":{"d":"54,0r0,-517r135,0r0,72r3,0v36,-59,98,-86,158,-86v151,0,189,85,189,213r0,318r-142,0r0,-292v0,-85,-24,-127,-91,-127v-77,0,-110,43,-110,148r0,271r-142,0","w":593},"o":{"d":"180,-258v0,83,29,165,125,165v97,0,126,-82,126,-165v0,-83,-29,-166,-126,-166v-96,0,-125,83,-125,166xm38,-258v0,-165,105,-273,267,-273v163,0,268,108,268,273v0,164,-105,272,-268,272v-162,0,-267,-108,-267,-272","w":611},"p":{"d":"315,-93v93,0,123,-80,123,-164v0,-83,-33,-167,-124,-167v-93,0,-123,83,-123,167v0,84,32,164,124,164xm54,182r0,-699r135,0v2,21,-4,49,2,66v35,-56,90,-80,154,-80v162,0,235,131,235,278v0,138,-75,267,-227,267v-65,0,-119,-30,-157,-78r0,246r-142,0","w":611},"q":{"d":"174,-258v0,83,30,165,123,165v92,0,124,-78,124,-163v0,-80,-32,-168,-121,-168v-93,0,-126,82,-126,166xm558,-517r0,699r-142,0r0,-247r-2,0v-33,56,-100,79,-163,79v-95,0,-219,-69,-219,-269v0,-142,75,-276,232,-276v66,0,123,27,159,80r0,-66r135,0","w":611},"r":{"d":"54,0r0,-517r135,0v2,31,-4,69,2,96v32,-72,108,-125,196,-105r0,132v-13,-3,-34,-5,-51,-5v-190,0,-130,225,-140,399r-142,0","w":389},"s":{"d":"29,-168r135,0v0,61,54,87,109,87v40,0,93,-16,93,-66v0,-43,-60,-58,-161,-80v-83,-18,-164,-46,-164,-138v0,-132,114,-166,225,-166v112,0,217,38,228,165r-135,0v-4,-55,-46,-70,-97,-70v-32,0,-79,5,-79,48v0,51,81,58,161,77v83,19,164,49,164,145v0,136,-119,180,-236,180v-120,0,-238,-45,-243,-182","w":537},"t":{"d":"234,-672r0,155r104,0r0,95r-104,0r0,256v-10,67,52,64,104,56r0,111v-115,11,-246,17,-246,-118r0,-305r-86,0r0,-95r86,0r0,-155r142,0","w":352},"u":{"d":"539,-517r0,517r-135,0r0,-72r-3,0v-36,59,-98,86,-158,86v-151,0,-189,-85,-189,-213r0,-318r142,0r0,292v0,85,24,127,91,127v77,0,110,-43,110,-148r0,-271r142,0","w":593},"v":{"d":"515,-517r-175,517r-158,0r-177,-517r149,0r109,353r2,0r109,-353r141,0","w":520},"w":{"d":"808,-517r-163,517r-146,0r-92,-347r-2,0r-88,347r-147,0r-164,-517r150,0r95,351r2,0r86,-351r138,0r88,350r2,0r95,-350r146,0","w":814},"x":{"d":"0,0r186,-272r-170,-245r162,0r91,135r90,-135r157,0r-170,242r191,275r-162,0r-108,-163r-108,163r-159,0","w":537},"y":{"d":"525,-517r-216,582v-33,111,-133,128,-265,112r0,-117v27,3,55,7,83,5v49,-4,65,-53,49,-97r-182,-485r152,0r117,354r2,0r113,-354r147,0","w":519},"z":{"d":"22,0r0,-107r269,-303r-249,0r0,-107r436,0r0,107r-269,303r288,0r0,107r-475,0","w":519},"{":{"d":"333,-731r0,112r-54,0v-48,0,-54,41,-54,73r0,152v0,98,-70,115,-99,118r0,3v29,3,99,26,99,110r0,160v0,32,6,73,54,73r54,0r0,112r-127,0v-45,0,-123,-44,-123,-135r0,-195v0,-61,-60,-83,-92,-83r0,-87v32,0,92,-22,92,-90r0,-188v0,-91,78,-135,123,-135r127,0","w":333},"|":{"d":"58,214r0,-1000r107,0r0,1000r-107,0","w":223},"}":{"d":"0,182r0,-112r54,0v48,0,54,-41,54,-73r0,-160v0,-84,69,-107,99,-110r0,-3v-30,-3,-99,-20,-99,-118r0,-152v0,-32,-6,-73,-54,-73r-54,0r0,-112r127,0v45,0,123,44,123,135r0,188v0,68,60,90,92,90r0,87v-32,0,-92,22,-92,83r0,195v0,91,-78,135,-123,135r-127,0","w":333},"~":{"d":"192,-340v66,0,155,68,213,68v41,0,64,-37,88,-72r40,93v-29,43,-63,86,-125,86v-81,1,-129,-68,-217,-68v-44,0,-68,37,-84,72r-40,-93v21,-43,59,-86,125,-86","w":600},"\u00a1":{"d":"65,183r0,-192r39,-308r71,0r38,308r0,192r-148,0xm218,-531r0,154r-157,0r0,-154r157,0","w":278},"\u00a2":{"d":"260,115r0,-101v-144,-8,-239,-122,-239,-264v0,-152,84,-268,239,-281r0,-85r59,0r0,85v110,0,219,77,224,197r-139,0v-4,-48,-40,-86,-85,-90r0,331v48,-8,87,-59,87,-110r139,0v-11,128,-103,206,-226,217r0,101r-59,0xm260,-93r0,-330v-72,19,-97,90,-97,159v0,72,23,147,97,171"},"\u00a3":{"d":"411,17v-99,0,-117,-38,-208,-38v-36,0,-76,7,-115,38r-62,-93v73,-44,148,-136,94,-233r-99,0r0,-85r64,0v-20,-25,-45,-78,-45,-138v0,-107,88,-199,256,-199v152,0,243,88,243,250r-135,0v-3,-39,-8,-133,-109,-133v-59,0,-98,36,-98,92v0,31,1,56,41,128r133,0r0,85r-105,0v27,90,-14,160,-74,202r2,2v104,-77,223,69,313,-43r60,101v-48,47,-105,64,-156,64"},"\u00a5":{"d":"359,0r-152,0r0,-138r-157,0r0,-95r157,0r0,-46r-14,-29r-143,0r0,-95r95,0r-154,-311r163,0r132,311r129,-311r162,0r-155,311r95,0r0,95r-143,0r-15,29r0,46r158,0r0,95r-158,0r0,138"},"\u00a7":{"d":"494,-538r-124,0v0,-49,-32,-86,-85,-86v-36,0,-76,24,-76,64v0,112,338,121,337,310v0,67,-41,123,-104,146v39,29,55,70,55,118v0,112,-112,168,-213,168v-128,0,-225,-58,-225,-194r124,0v3,59,38,87,98,87v41,0,74,-22,74,-66v0,-118,-344,-123,-345,-320v0,-72,39,-122,107,-146v-28,-31,-43,-58,-43,-101v0,-113,108,-173,209,-173v117,0,211,69,211,193xm377,-287r-165,-93v-35,-30,-80,18,-78,57v0,19,9,37,32,49r180,98v35,22,76,-13,76,-48v0,-31,-21,-50,-45,-63"},"\u00a4":{"d":"280,-491v-84,0,-127,68,-127,142v0,73,43,140,126,140v83,0,122,-70,122,-142v0,-70,-40,-140,-121,-140xm20,-149r57,-58v-63,-68,-65,-219,0,-286r-57,-58r57,-57r57,56v64,-58,219,-62,283,-1r58,-57r61,61r-56,55v60,67,60,220,-1,289r55,56r-55,55r-57,-58v-65,66,-224,66,-290,1r-56,58"},"'":{"d":"86,-393r0,-321r107,0r0,321r-107,0","w":278},"\u00ab":{"d":"199,-80r-157,-125r0,-135r157,-123r0,120r-90,71r90,72r0,120xm402,-80r-157,-125r0,-135r157,-123r0,120r-90,71r90,72r0,120","w":444},"\u00b7":{"d":"55,-287v0,-48,40,-85,85,-85v45,0,84,38,84,85v0,43,-39,84,-83,84v-47,0,-86,-38,-86,-84","w":278},"\u00b6":{"d":"221,166r0,-523v-140,0,-219,-68,-219,-175v0,-241,306,-172,533,-182r0,880r-102,0r0,-800r-110,0r0,800r-102,0","w":620},"\u00bb":{"d":"42,-463r157,123r0,135r-157,125r0,-120r90,-72r-90,-71r0,-120xm245,-463r157,123r0,135r-157,125r0,-120r90,-72r-90,-71r0,-120","w":444},"\u00bf":{"d":"363,-531r0,154r-157,0r0,-154r157,0xm375,-51r147,0v-3,143,-97,247,-241,247v-188,0,-249,-117,-249,-193v0,-191,165,-165,182,-286r0,-38r135,0r0,45v-14,173,-160,157,-160,265v0,61,32,90,85,90v69,0,101,-59,101,-130"},"`":{"d":"106,-589r-154,-142r157,0r96,142r-99,0","w":259},"\u00b4":{"d":"307,-731r-154,142r-99,0r96,-142r157,0","w":259},"\u00af":{"d":"-57,-619r0,-75r373,0r0,75r-373,0","w":259},"\u00a8":{"d":"-41,-598r0,-117r135,0r0,117r-135,0xm165,-598r0,-117r135,0r0,117r-135,0","w":259},"\u00b8":{"d":"12,195r21,-48v28,13,122,41,124,-16v1,-41,-50,-35,-80,-25r-21,-24r59,-82r49,0v-11,18,-31,35,-38,54v55,-20,126,3,127,63v2,129,-166,108,-241,78","w":259},"\u00c6":{"d":"-11,0r341,-714r606,0r0,132r-332,0r0,153r312,0r0,122r-312,0r0,175r340,0r0,132r-492,0r0,-159r-224,0r-72,159r-167,0xm418,-582r-138,306r172,0r0,-306r-34,0","w":981},"\u00aa":{"d":"122,-605r-102,0v13,-87,81,-109,156,-109v70,0,150,14,150,89v0,77,-10,185,12,241r-101,0v-3,-10,-6,-20,-7,-31v-68,67,-221,57,-220,-60v0,-74,58,-89,114,-97v60,-8,107,-5,107,-38v0,-35,-27,-39,-60,-39v-23,0,-46,13,-49,44xm230,-535v-34,24,-117,8,-118,58v0,29,26,37,45,37v76,0,73,-46,73,-95","w":344},"\u00d8":{"d":"556,-490r-295,326v31,31,72,49,128,49v191,-1,228,-222,167,-375xm223,-219r296,-329v-31,-31,-73,-51,-130,-51v-190,0,-230,227,-166,380xm34,-10r86,-95v-55,-67,-82,-153,-82,-249v0,-212,131,-377,351,-377v92,0,168,28,225,77r80,-89r50,44r-84,93v52,67,80,153,80,252v0,206,-131,371,-351,371v-92,0,-167,-29,-223,-76r-83,92","w":778},"\u00ba":{"d":"183,-639v-86,3,-87,186,0,189v89,-3,87,-186,0,-189xm12,-544v0,-105,67,-170,171,-170v104,0,172,65,172,170v0,105,-68,169,-172,169v-104,0,-171,-64,-171,-169","w":367},"\u00e6":{"d":"509,-314r227,0v0,-64,-39,-122,-111,-122v-72,0,-116,58,-116,122xm878,-224r-369,0v-3,68,44,143,123,143v63,0,94,-30,103,-81r138,0v-40,186,-316,240,-431,88v-48,63,-134,88,-211,88v-98,0,-193,-39,-193,-154v0,-118,88,-145,173,-158v121,-19,174,-19,174,-72v0,-54,-47,-66,-92,-66v-55,0,-96,20,-99,80r-142,0v5,-131,123,-175,244,-175v60,0,134,17,171,70v40,-47,90,-70,173,-70v172,0,238,147,238,307xm385,-188r0,-64v-53,43,-205,6,-205,104v0,52,44,67,88,67v52,0,117,-31,117,-107","w":907},"\u00f8":{"d":"44,-1r60,-68v-44,-48,-66,-111,-66,-189v0,-165,105,-273,267,-273v63,0,118,16,163,48r53,-61r37,32r-54,61v44,47,69,113,69,193v0,164,-105,272,-268,272v-65,0,-120,-17,-165,-50r-59,67xm415,-349r-195,222v19,21,46,34,85,34v130,0,145,-152,110,-256xm195,-172r193,-220v-20,-21,-48,-32,-83,-32v-127,0,-144,150,-110,252","w":611},"\u00df":{"d":"56,0r0,-491v0,-111,35,-240,235,-240v120,0,227,60,227,192v0,65,-41,120,-93,141v87,18,130,94,130,179v0,124,-90,233,-217,233v-28,0,-55,-2,-82,-6r0,-116v87,24,157,-35,157,-116v0,-84,-59,-134,-157,-120r0,-94v65,9,127,-18,127,-87v0,-84,-67,-89,-96,-89v-57,0,-89,38,-89,98r0,516r-142,0","w":611},"\u00b9":{"d":"289,-705r0,432r-102,0r0,-274r-110,0r0,-75v64,3,119,-19,128,-83r84,0","w":392},"\u00ac":{"d":"552,-406r0,307r-107,0r0,-200r-397,0r0,-107r504,0","w":600},"\u00b5":{"d":"539,-517r0,517r-135,0r0,-72r-3,0v-37,58,-98,86,-130,86v-40,0,-63,-11,-75,-24r0,192r-142,0r0,-699r142,0r0,292v0,85,24,127,91,127v77,0,110,-43,110,-148r0,-271r142,0","w":593},"\u00d0":{"d":"226,-582r0,155r160,0r0,117r-160,0r0,178v189,7,318,9,318,-214v0,-144,-51,-236,-206,-236r-112,0xm69,0r0,-311r-66,0r0,-116r66,0r0,-287r308,0v185,0,324,117,324,353v0,207,-106,361,-324,361r-308,0","w":741},"\u00bd":{"d":"611,-267r-102,0v-1,-103,58,-174,181,-174v84,0,156,46,156,135v0,129,-145,135,-213,226r209,0r0,80r-334,0v0,-106,64,-147,140,-196v40,-25,96,-51,96,-103v0,-35,-24,-62,-61,-62v-55,0,-75,54,-72,94xm236,-705r0,432r-102,0r0,-274r-110,0r0,-75v64,3,119,-19,128,-83r84,0xm152,22r414,-744r85,0r-412,744r-87,0","w":889},"\u00b1":{"d":"48,0r0,-107r505,0r0,107r-505,0xm354,-506r0,131r199,0r0,107r-199,0r0,131r-107,0r0,-131r-199,0r0,-107r199,0r0,-131r107,0","w":600},"\u00de":{"d":"226,-495r0,214v122,-5,260,30,260,-107v0,-137,-138,-102,-260,-107xm69,0r0,-714r157,0r0,97r165,0v179,0,247,113,247,229v0,116,-68,229,-247,229r-165,0r0,159r-157,0","w":667},"\u00bc":{"d":"689,-169v-2,-46,4,-102,-2,-144r-114,144r116,0xm689,0r0,-89r-192,0r0,-93r188,-238r100,0r0,251r57,0r0,80r-57,0r0,89r-96,0xm236,-705r0,432r-102,0r0,-274r-110,0r0,-75v64,3,119,-19,128,-83r84,0xm152,22r414,-744r85,0r-412,744r-87,0","w":892},"\u00f7":{"d":"216,-45v0,-47,40,-84,85,-84v45,0,84,37,84,84v0,42,-39,85,-83,85v-47,0,-86,-40,-86,-85xm216,-460v0,-48,40,-85,85,-85v45,0,84,38,84,85v0,43,-39,84,-83,84v-47,0,-86,-38,-86,-84xm48,-199r0,-107r505,0r0,107r-505,0","w":600},"\u00a6":{"d":"165,-661r0,250r-107,0r0,-250r107,0xm58,89r0,-250r107,0r0,250r-107,0","w":223},"\u00b0":{"d":"117,-566v0,48,40,88,83,88v43,0,83,-40,83,-88v0,-48,-40,-88,-83,-88v-43,0,-83,40,-83,88xm52,-566v0,-83,65,-148,148,-148v83,0,148,65,148,148v0,83,-65,148,-148,148v-83,0,-148,-65,-148,-148","w":400},"\u00fe":{"d":"438,-257v0,-83,-33,-167,-124,-167v-93,0,-123,83,-123,167v0,84,32,164,124,164v93,0,123,-80,123,-164xm54,182r0,-896r142,0r0,263r2,0v35,-56,90,-80,147,-80v162,0,235,131,235,278v0,138,-75,267,-227,267v-65,0,-119,-30,-157,-78r0,246r-142,0","w":611},"\u00be":{"d":"709,-169v-2,-46,4,-102,-2,-144r-114,144r116,0xm709,0r0,-89r-192,0r0,-93r188,-238r100,0r0,251r57,0r0,80r-57,0r0,89r-96,0xm181,-464r0,-70v37,0,95,1,95,-47v0,-33,-30,-53,-62,-53v-43,0,-68,32,-67,72r-96,0v3,-93,62,-152,162,-152v80,0,159,40,159,123v0,42,-26,73,-66,88v51,9,81,47,81,94v0,96,-80,145,-173,145v-108,0,-178,-56,-175,-160r96,0v3,43,26,80,77,80v40,0,73,-26,73,-63v0,-57,-60,-57,-104,-57xm239,22r414,-744r85,0r-412,744r-87,0","w":889},"\u00b2":{"d":"130,-540r-102,0v-1,-103,58,-174,181,-174v84,0,156,46,156,135v0,129,-145,135,-213,226r209,0r0,80r-334,0v0,-106,64,-147,140,-196v40,-25,96,-51,96,-103v0,-35,-24,-62,-61,-62v-55,0,-75,54,-72,94","w":392},"\u00ae":{"d":"334,-503r0,110v69,-4,160,19,156,-58v-4,-67,-90,-50,-156,-52xm251,-149r0,-419r158,0v105,0,164,33,164,124v0,77,-49,107,-110,112r112,183r-87,0r-102,-179r-52,0r0,179r-83,0xm118,-358v0,171,125,295,282,295v155,0,282,-124,282,-295v0,-170,-127,-293,-282,-293v-157,0,-282,123,-282,293xm16,-358v0,-227,181,-373,384,-373v203,0,384,146,384,373v0,228,-181,375,-384,375v-203,0,-384,-147,-384,-375","w":800},"\u00f0":{"d":"133,-593r107,-54v-29,-21,-57,-37,-84,-50r92,-69v36,20,69,42,99,66r123,-62r52,59r-114,57v107,103,165,218,165,373v0,164,-105,287,-268,287v-162,0,-267,-109,-267,-261v0,-124,70,-259,230,-259v40,0,88,11,137,40v-24,-56,-69,-98,-102,-127r-112,56xm305,-93v97,0,126,-82,126,-165v0,-74,-35,-153,-127,-153v-92,0,-124,80,-124,153v0,83,29,165,125,165","w":611},"\u00d7":{"d":"140,-17r-76,-76r161,-160r-159,-160r76,-76r159,160r160,-160r76,76r-161,160r161,160r-76,76r-160,-161","w":600},"\u00b3":{"d":"164,-464r0,-70v37,0,95,1,95,-47v0,-33,-30,-53,-62,-53v-43,0,-68,32,-67,72r-96,0v3,-93,62,-152,162,-152v80,0,159,40,159,123v0,42,-26,73,-66,88v51,9,81,47,81,94v0,96,-80,145,-173,145v-108,0,-178,-56,-175,-160r96,0v3,43,26,80,77,80v40,0,73,-26,73,-63v0,-57,-60,-57,-104,-57","w":392},"\u00a9":{"d":"515,-295r81,0v-16,100,-93,158,-182,158v-130,0,-215,-97,-215,-222v0,-128,80,-224,213,-224v92,0,168,54,181,155r-78,0v-11,-47,-51,-75,-103,-75v-76,0,-117,59,-117,142v0,78,47,144,119,144v56,0,94,-30,101,-78xm118,-357v0,171,125,294,282,294v155,0,282,-123,282,-294v0,-171,-127,-294,-282,-294v-157,0,-282,123,-282,294xm16,-357v0,-228,181,-374,384,-374v203,0,384,146,384,374v0,227,-181,374,-384,374v-203,0,-384,-147,-384,-374","w":800},"\u00c1":{"d":"342,-538r-93,262r185,0r-90,-262r-2,0xm-7,0r271,-714r161,0r267,714r-163,0r-54,-159r-267,0r-56,159r-159,0xm526,-921r-154,142r-99,0r96,-142r157,0","w":685},"\u00c2":{"d":"342,-538r-93,262r185,0r-90,-262r-2,0xm-7,0r271,-714r161,0r267,714r-163,0r-54,-159r-267,0r-56,159r-159,0xm171,-779r111,-142r130,0r110,142r-117,0r-62,-81r-64,81r-108,0","w":685},"\u00c4":{"d":"342,-538r-93,262r185,0r-90,-262r-2,0xm-7,0r271,-714r161,0r267,714r-163,0r-54,-159r-267,0r-56,159r-159,0xm175,-788r0,-117r135,0r0,117r-135,0xm381,-788r0,-117r135,0r0,117r-135,0","w":685},"\u00c0":{"d":"342,-538r-93,262r185,0r-90,-262r-2,0xm-7,0r271,-714r161,0r267,714r-163,0r-54,-159r-267,0r-56,159r-159,0xm314,-779r-154,-142r157,0r96,142r-99,0","w":685},"\u00c5":{"d":"342,-538r-93,262r185,0r-90,-262r-2,0xm-7,0r271,-714r161,0r267,714r-163,0r-54,-159r-267,0r-56,159r-159,0xm222,-866v0,-68,54,-122,122,-122v68,0,123,54,123,122v0,69,-55,121,-123,121v-68,0,-122,-52,-122,-121xm281,-866v0,39,24,68,63,68v39,0,64,-29,64,-68v0,-39,-25,-68,-64,-68v-39,0,-63,29,-63,68","w":685},"\u00c3":{"d":"342,-538r-93,262r185,0r-90,-262r-2,0xm-7,0r271,-714r161,0r267,714r-163,0r-54,-159r-267,0r-56,159r-159,0xm278,-911v48,-4,157,84,181,0r69,0v-12,56,-30,106,-112,114v-57,6,-175,-85,-194,8r-61,0v7,-59,48,-116,117,-122","w":685},"\u00c7":{"d":"343,15v-193,-23,-304,-177,-305,-369v0,-212,131,-377,351,-377v156,0,289,92,308,257r-152,0v-11,-71,-79,-125,-156,-125v-141,0,-194,120,-194,245v0,119,53,239,194,239v96,0,150,-65,162,-160r152,0v-16,179,-139,292,-313,292v-7,12,-22,24,-25,37v55,-20,126,3,127,63v2,129,-166,108,-241,78r21,-48v28,13,122,41,124,-16v1,-41,-50,-35,-80,-25r-21,-24","w":741},"\u00c9":{"d":"69,0r0,-714r534,0r0,132r-377,0r0,153r346,0r0,122r-346,0r0,175r385,0r0,132r-542,0xm532,-921r-154,142r-99,0r96,-142r157,0","w":648},"\u00ca":{"d":"69,0r0,-714r534,0r0,132r-377,0r0,153r346,0r0,122r-346,0r0,175r385,0r0,132r-542,0xm157,-779r111,-142r130,0r110,142r-117,0r-62,-81r-64,81r-108,0","w":648},"\u00cb":{"d":"69,0r0,-714r534,0r0,132r-377,0r0,153r346,0r0,122r-346,0r0,175r385,0r0,132r-542,0xm169,-788r0,-117r135,0r0,117r-135,0xm375,-788r0,-117r135,0r0,117r-135,0","w":648},"\u00c8":{"d":"69,0r0,-714r534,0r0,132r-377,0r0,153r346,0r0,122r-346,0r0,175r385,0r0,132r-542,0xm317,-779r-154,-142r157,0r96,142r-99,0","w":648},"\u00cd":{"d":"69,0r0,-714r157,0r0,714r-157,0xm321,-921r-154,142r-99,0r96,-142r157,0","w":295},"\u00ce":{"d":"69,0r0,-714r157,0r0,714r-157,0xm-28,-779r111,-142r130,0r110,142r-117,0r-62,-81r-64,81r-108,0","w":295},"\u00cf":{"d":"69,0r0,-714r157,0r0,714r-157,0xm-24,-788r0,-117r135,0r0,117r-135,0xm182,-788r0,-117r135,0r0,117r-135,0","w":295},"\u00cc":{"d":"69,0r0,-714r157,0r0,714r-157,0xm127,-779r-154,-142r157,0r96,142r-99,0","w":295},"\u00d1":{"d":"69,0r0,-714r156,0r298,479r2,0r0,-479r147,0r0,714r-157,0r-297,-478r-2,0r0,478r-147,0xm308,-911v48,-4,157,84,181,0r69,0v-12,56,-30,106,-112,114v-57,6,-175,-85,-194,8r-61,0v7,-59,48,-116,117,-122","w":741},"\u00d3":{"d":"195,-354v0,119,53,239,194,239v141,0,194,-120,194,-239v0,-125,-53,-245,-194,-245v-141,0,-194,120,-194,245xm38,-354v0,-212,131,-377,351,-377v220,0,351,165,351,377v0,206,-131,371,-351,371v-220,0,-351,-165,-351,-371xm588,-921r-154,142r-99,0r96,-142r157,0","w":778},"\u00d4":{"d":"195,-354v0,119,53,239,194,239v141,0,194,-120,194,-239v0,-125,-53,-245,-194,-245v-141,0,-194,120,-194,245xm38,-354v0,-212,131,-377,351,-377v220,0,351,165,351,377v0,206,-131,371,-351,371v-220,0,-351,-165,-351,-371xm220,-779r111,-142r130,0r110,142r-117,0r-62,-81r-64,81r-108,0","w":778},"\u00d6":{"d":"195,-354v0,119,53,239,194,239v141,0,194,-120,194,-239v0,-125,-53,-245,-194,-245v-141,0,-194,120,-194,245xm38,-354v0,-212,131,-377,351,-377v220,0,351,165,351,377v0,206,-131,371,-351,371v-220,0,-351,-165,-351,-371xm216,-788r0,-117r135,0r0,117r-135,0xm422,-788r0,-117r135,0r0,117r-135,0","w":778},"\u00d2":{"d":"195,-354v0,119,53,239,194,239v141,0,194,-120,194,-239v0,-125,-53,-245,-194,-245v-141,0,-194,120,-194,245xm38,-354v0,-212,131,-377,351,-377v220,0,351,165,351,377v0,206,-131,371,-351,371v-220,0,-351,-165,-351,-371xm353,-779r-154,-142r157,0r96,142r-99,0","w":778},"\u00d5":{"d":"195,-354v0,119,53,239,194,239v141,0,194,-120,194,-239v0,-125,-53,-245,-194,-245v-141,0,-194,120,-194,245xm38,-354v0,-212,131,-377,351,-377v220,0,351,165,351,377v0,206,-131,371,-351,371v-220,0,-351,-165,-351,-371xm323,-911v48,-4,157,84,181,0r69,0v-12,56,-30,106,-112,114v-57,6,-175,-85,-194,8r-61,0v7,-59,48,-116,117,-122","w":778},"\u00da":{"d":"675,-714r0,444v0,193,-114,287,-305,287v-193,0,-304,-92,-304,-287r0,-444r157,0r0,444v0,78,20,155,147,155v112,0,148,-48,148,-155r0,-444r157,0xm568,-921r-154,142r-99,0r96,-142r157,0","w":741},"\u00db":{"d":"675,-714r0,444v0,193,-114,287,-305,287v-193,0,-304,-92,-304,-287r0,-444r157,0r0,444v0,78,20,155,147,155v112,0,148,-48,148,-155r0,-444r157,0xm197,-779r111,-142r130,0r110,142r-117,0r-62,-81r-64,81r-108,0","w":741},"\u00dc":{"d":"675,-714r0,444v0,193,-114,287,-305,287v-193,0,-304,-92,-304,-287r0,-444r157,0r0,444v0,78,20,155,147,155v112,0,148,-48,148,-155r0,-444r157,0xm200,-788r0,-117r135,0r0,117r-135,0xm406,-788r0,-117r135,0r0,117r-135,0","w":741},"\u00d9":{"d":"675,-714r0,444v0,193,-114,287,-305,287v-193,0,-304,-92,-304,-287r0,-444r157,0r0,444v0,78,20,155,147,155v112,0,148,-48,148,-155r0,-444r157,0xm327,-779r-154,-142r157,0r96,142r-99,0","w":741},"\u00dd":{"d":"254,0r0,-278r-263,-436r177,0r167,282r166,-282r175,0r-265,440r0,274r-157,0xm534,-921r-154,142r-99,0r96,-142r157,0","w":667},"\u00e1":{"d":"190,-358r-142,0v8,-132,127,-173,243,-173v103,0,227,23,227,147r0,269v0,47,5,94,18,115r-144,0v-5,-16,-9,-33,-10,-50v-101,104,-353,90,-350,-91v3,-235,344,-109,344,-225v0,-60,-42,-70,-92,-70v-55,0,-89,22,-94,78xm376,-253v-53,43,-204,5,-202,106v0,52,41,66,87,66v111,0,115,-87,115,-119r0,-53xm481,-731r-154,142r-99,0r96,-142r157,0","w":574},"\u00e2":{"d":"190,-358r-142,0v8,-132,127,-173,243,-173v103,0,227,23,227,147r0,269v0,47,5,94,18,115r-144,0v-5,-16,-9,-33,-10,-50v-101,104,-353,90,-350,-91v3,-235,344,-109,344,-225v0,-60,-42,-70,-92,-70v-55,0,-89,22,-94,78xm376,-253v-53,43,-204,5,-202,106v0,52,41,66,87,66v111,0,115,-87,115,-119r0,-53xm117,-589r111,-142r130,0r110,142r-117,0r-62,-81r-64,81r-108,0","w":574},"\u00e4":{"d":"190,-358r-142,0v8,-132,127,-173,243,-173v103,0,227,23,227,147r0,269v0,47,5,94,18,115r-144,0v-5,-16,-9,-33,-10,-50v-101,104,-353,90,-350,-91v3,-235,344,-109,344,-225v0,-60,-42,-70,-92,-70v-55,0,-89,22,-94,78xm376,-253v-53,43,-204,5,-202,106v0,52,41,66,87,66v111,0,115,-87,115,-119r0,-53xm122,-598r0,-117r135,0r0,117r-135,0xm328,-598r0,-117r135,0r0,117r-135,0","w":574},"\u00e0":{"d":"190,-358r-142,0v8,-132,127,-173,243,-173v103,0,227,23,227,147r0,269v0,47,5,94,18,115r-144,0v-5,-16,-9,-33,-10,-50v-101,104,-353,90,-350,-91v3,-235,344,-109,344,-225v0,-60,-42,-70,-92,-70v-55,0,-89,22,-94,78xm376,-253v-53,43,-204,5,-202,106v0,52,41,66,87,66v111,0,115,-87,115,-119r0,-53xm282,-589r-154,-142r157,0r96,142r-99,0","w":574},"\u00e5":{"d":"190,-358r-142,0v8,-132,127,-173,243,-173v103,0,227,23,227,147r0,269v0,47,5,94,18,115r-144,0v-5,-16,-9,-33,-10,-50v-101,104,-353,90,-350,-91v3,-235,344,-109,344,-225v0,-60,-42,-70,-92,-70v-55,0,-89,22,-94,78xm376,-253v-53,43,-204,5,-202,106v0,52,41,66,87,66v111,0,115,-87,115,-119r0,-53xm169,-684v0,-68,54,-122,122,-122v68,0,123,54,123,122v0,69,-55,121,-123,121v-68,0,-122,-52,-122,-121xm228,-684v0,39,24,68,63,68v39,0,64,-29,64,-68v0,-39,-25,-68,-64,-68v-39,0,-63,29,-63,68","w":574},"\u00e3":{"d":"190,-358r-142,0v8,-132,127,-173,243,-173v103,0,227,23,227,147r0,269v0,47,5,94,18,115r-144,0v-5,-16,-9,-33,-10,-50v-101,104,-353,90,-350,-91v3,-235,344,-109,344,-225v0,-60,-42,-70,-92,-70v-55,0,-89,22,-94,78xm376,-253v-53,43,-204,5,-202,106v0,52,41,66,87,66v111,0,115,-87,115,-119r0,-53xm225,-721v48,-4,157,84,181,0r69,0v-12,56,-30,106,-112,114v-57,6,-175,-85,-194,8r-61,0v7,-59,48,-116,117,-122","w":574},"\u00e7":{"d":"266,12v-143,-14,-228,-121,-228,-263v0,-161,96,-280,264,-280v122,0,235,64,243,196r-139,0v-9,-59,-44,-89,-105,-89v-91,0,-121,92,-121,168v0,75,29,163,118,163v67,0,104,-41,113,-105r137,0v-16,128,-100,205,-235,212v-8,13,-24,26,-27,40v55,-20,126,3,127,63v2,129,-166,108,-241,78r21,-48v28,13,122,41,124,-16v1,-41,-50,-35,-80,-25r-21,-24","w":574},"\u00e9":{"d":"171,-314r231,0v-13,-72,-44,-110,-113,-110v-92,0,-115,70,-118,110xm544,-224r-373,0v4,91,47,131,127,131v57,0,103,-35,112,-67r125,0v-40,123,-125,174,-242,174v-163,0,-264,-112,-264,-272v0,-155,107,-273,264,-273v176,0,262,148,251,307xm492,-731r-154,142r-99,0r96,-142r157,0","w":574},"\u00ea":{"d":"171,-314r231,0v-13,-72,-44,-110,-113,-110v-92,0,-115,70,-118,110xm544,-224r-373,0v4,91,47,131,127,131v57,0,103,-35,112,-67r125,0v-40,123,-125,174,-242,174v-163,0,-264,-112,-264,-272v0,-155,107,-273,264,-273v176,0,262,148,251,307xm118,-589r111,-142r130,0r110,142r-117,0r-62,-81r-64,81r-108,0","w":574},"\u00eb":{"d":"171,-314r231,0v-13,-72,-44,-110,-113,-110v-92,0,-115,70,-118,110xm544,-224r-373,0v4,91,47,131,127,131v57,0,103,-35,112,-67r125,0v-40,123,-125,174,-242,174v-163,0,-264,-112,-264,-272v0,-155,107,-273,264,-273v176,0,262,148,251,307xm122,-598r0,-117r135,0r0,117r-135,0xm328,-598r0,-117r135,0r0,117r-135,0","w":574},"\u00e8":{"d":"171,-314r231,0v-13,-72,-44,-110,-113,-110v-92,0,-115,70,-118,110xm544,-224r-373,0v4,91,47,131,127,131v57,0,103,-35,112,-67r125,0v-40,123,-125,174,-242,174v-163,0,-264,-112,-264,-272v0,-155,107,-273,264,-273v176,0,262,148,251,307xm258,-589r-154,-142r157,0r96,142r-99,0","w":574},"\u00ed":{"d":"58,0r0,-517r142,0r0,517r-142,0xm311,-731r-154,142r-99,0r96,-142r157,0","w":258},"\u00ee":{"d":"58,0r0,-517r142,0r0,517r-142,0xm-44,-589r111,-142r130,0r110,142r-117,0r-62,-81r-64,81r-108,0","w":258},"\u00ef":{"d":"58,0r0,-517r142,0r0,517r-142,0xm-41,-598r0,-117r135,0r0,117r-135,0xm165,-598r0,-117r135,0r0,117r-135,0","w":258},"\u00ec":{"d":"58,0r0,-517r142,0r0,517r-142,0xm101,-589r-154,-142r157,0r96,142r-99,0","w":258},"\u00f1":{"d":"54,0r0,-517r135,0r0,72r3,0v36,-59,98,-86,158,-86v151,0,189,85,189,213r0,318r-142,0r0,-292v0,-85,-24,-127,-91,-127v-77,0,-110,43,-110,148r0,271r-142,0xm231,-721v48,-4,157,84,181,0r69,0v-12,56,-30,106,-112,114v-57,6,-175,-85,-194,8r-61,0v7,-59,48,-116,117,-122","w":593},"\u00f3":{"d":"180,-258v0,83,29,165,125,165v97,0,126,-82,126,-165v0,-83,-29,-166,-126,-166v-96,0,-125,83,-125,166xm38,-258v0,-165,105,-273,267,-273v163,0,268,108,268,273v0,164,-105,272,-268,272v-162,0,-267,-108,-267,-272xm504,-731r-154,142r-99,0r96,-142r157,0","w":611},"\u00f4":{"d":"180,-258v0,83,29,165,125,165v97,0,126,-82,126,-165v0,-83,-29,-166,-126,-166v-96,0,-125,83,-125,166xm38,-258v0,-165,105,-273,267,-273v163,0,268,108,268,273v0,164,-105,272,-268,272v-162,0,-267,-108,-267,-272xm132,-589r111,-142r130,0r110,142r-117,0r-62,-81r-64,81r-108,0","w":611},"\u00f6":{"d":"180,-258v0,83,29,165,125,165v97,0,126,-82,126,-165v0,-83,-29,-166,-126,-166v-96,0,-125,83,-125,166xm38,-258v0,-165,105,-273,267,-273v163,0,268,108,268,273v0,164,-105,272,-268,272v-162,0,-267,-108,-267,-272xm136,-598r0,-117r135,0r0,117r-135,0xm342,-598r0,-117r135,0r0,117r-135,0","w":611},"\u00f2":{"d":"180,-258v0,83,29,165,125,165v97,0,126,-82,126,-165v0,-83,-29,-166,-126,-166v-96,0,-125,83,-125,166xm38,-258v0,-165,105,-273,267,-273v163,0,268,108,268,273v0,164,-105,272,-268,272v-162,0,-267,-108,-267,-272xm259,-589r-154,-142r157,0r96,142r-99,0","w":611},"\u00f5":{"d":"180,-258v0,83,29,165,125,165v97,0,126,-82,126,-165v0,-83,-29,-166,-126,-166v-96,0,-125,83,-125,166xm38,-258v0,-165,105,-273,267,-273v163,0,268,108,268,273v0,164,-105,272,-268,272v-162,0,-267,-108,-267,-272xm240,-721v48,-4,157,84,181,0r69,0v-12,56,-30,106,-112,114v-57,6,-175,-85,-194,8r-61,0v7,-59,48,-116,117,-122","w":611},"\u00fa":{"d":"539,-517r0,517r-135,0r0,-72r-3,0v-36,59,-98,86,-158,86v-151,0,-189,-85,-189,-213r0,-318r142,0r0,292v0,85,24,127,91,127v77,0,110,-43,110,-148r0,-271r142,0xm495,-731r-154,142r-99,0r96,-142r157,0","w":593},"\u00fb":{"d":"539,-517r0,517r-135,0r0,-72r-3,0v-36,59,-98,86,-158,86v-151,0,-189,-85,-189,-213r0,-318r142,0r0,292v0,85,24,127,91,127v77,0,110,-43,110,-148r0,-271r142,0xm123,-589r111,-142r130,0r110,142r-117,0r-62,-81r-64,81r-108,0","w":593},"\u00fc":{"d":"539,-517r0,517r-135,0r0,-72r-3,0v-36,59,-98,86,-158,86v-151,0,-189,-85,-189,-213r0,-318r142,0r0,292v0,85,24,127,91,127v77,0,110,-43,110,-148r0,-271r142,0xm128,-598r0,-117r135,0r0,117r-135,0xm334,-598r0,-117r135,0r0,117r-135,0","w":593},"\u00f9":{"d":"539,-517r0,517r-135,0r0,-72r-3,0v-36,59,-98,86,-158,86v-151,0,-189,-85,-189,-213r0,-318r142,0r0,292v0,85,24,127,91,127v77,0,110,-43,110,-148r0,-271r142,0xm251,-589r-154,-142r157,0r96,142r-99,0","w":593},"\u00fd":{"d":"525,-517r-216,582v-33,111,-133,128,-265,112r0,-117v27,3,55,7,83,5v49,-4,65,-53,49,-97r-182,-485r152,0r117,354r2,0r113,-354r147,0xm464,-731r-154,142r-99,0r96,-142r157,0","w":519},"\u00ff":{"d":"525,-517r-216,582v-33,111,-133,128,-265,112r0,-117v27,3,55,7,83,5v49,-4,65,-53,49,-97r-182,-485r152,0r117,354r2,0r113,-354r147,0xm94,-598r0,-117r135,0r0,117r-135,0xm300,-598r0,-117r135,0r0,117r-135,0","w":519},"\u20ac":{"d":"97,-455v28,-151,132,-266,297,-267v57,0,117,17,182,50r-61,125v-117,-77,-237,-59,-271,92r244,0r-31,72r-224,0r-1,42r213,0r-31,72r-174,0v31,183,179,196,302,95r-1,151v-45,27,-97,40,-154,40v-176,-1,-269,-122,-294,-286r-77,0r31,-72r40,0v0,-13,-1,-32,1,-42r-73,0r31,-72r51,0"},"\r":{"w":0},"\u00a0":{"w":278},"\u00ad":{"d":"53,-212r0,-122r301,0r0,122r-301,0","w":407}}});


/*!
 * The following copyright notice may not be removed under any circumstances.
 *
 * Copyright:
 * Copyright © 1988, 1990, 1993, 2003 Linotype Library GmbH, www.linotype.com. All
 * rights reserved. Copyright © 1988, 1990, 1993 Adobe Systems Incorporated. All
 * Rights Reserved.
 *
 * Trademark:
 * Helvetica, Neue Helvetica is a trademark of Heidelberger Druckmaschinen AG which
 * may be registered in certain jurisdictions, exclusively licensed through
 * Linotype Library GmbH, a wholly owned subsidiary of Heidelberger Druckmaschinen
 * AG.
 *
 * Full name:
 * HelveticaNeueLTPro-BdCn
 *
 * Description:
 * Copyright © 1988, 1990, 1993, 2003 Linotype Library GmbH, www.linotype.com. All
 * rights reserved. Copyright © 1988, 1990, 1993 Adobe Systems Incorporated. All
 * Rights Reserved.
 *
 * Manufacturer:
 * Linotype Library GmbH
 *
 * Designer:
 * Linotype Library GmbH
 *
 * Vendor URL:
 * http://www.linotype.com
 *
 * License information:
 * http://www.Linotype.com
 */
Raphael.registerFont({"w":480,"face":{"font-family":"Helvetica Neue LT Pro 77 Bold Condensed","font-weight":700,"font-stretch":"normal","units-per-em":"1000","panose-1":"2 11 7 6 3 5 2 3 2 4","ascent":"714","descent":"-286","x-height":"14","bbox":"-36 -954 771 217","underline-thickness":"50","underline-position":"-50","stemh":"106","stemv":"138","unicode-range":"U+000D-U+00FF"},"glyphs":{" ":{"w":240},"!":{"d":"79,-132r138,0r0,132r-138,0r0,-132xm198,-199r-100,0r-19,-283r0,-232r138,0r0,232","w":296},"\"":{"d":"72,-393r0,-321r124,0r0,321r-124,0xm267,-393r0,-321r124,0r0,321r-124,0","w":463},"#":{"d":"199,-408r-15,122r97,0r16,-122r-98,0xm0,-174r0,-112r87,0r16,-122r-73,0r0,-112r86,0r22,-174r96,0r-21,174r97,0r22,-174r97,0r-22,174r73,0r0,112r-86,0r-16,122r73,0r0,112r-86,0r-22,174r-97,0r22,-174r-98,0r-21,174r-97,0r22,-174r-74,0"},"$":{"d":"205,101r0,-87v-174,-17,-198,-103,-196,-226r138,0v0,56,5,107,58,120r0,-202r-50,-18v-97,-35,-137,-101,-137,-192v0,-123,68,-191,187,-204r0,-69r64,0r0,69v154,17,187,99,185,203r-138,0v-1,-51,-12,-86,-47,-97r0,189v100,43,202,62,202,213v0,144,-70,205,-202,214r0,87r-64,0xm205,-442r0,-160v-31,9,-49,33,-49,76v0,37,16,65,49,84xm269,-269r0,177v41,-9,58,-43,58,-80v0,-51,-19,-77,-58,-97"},"%":{"d":"140,31r406,-756r89,0r-406,756r-89,0xm133,-521v0,80,4,119,44,119v40,0,44,-39,44,-119v0,-72,-4,-111,-44,-111v-40,0,-44,39,-44,111xm27,-517v0,-129,26,-191,150,-191v124,0,150,62,150,191v0,129,-26,191,-150,191v-124,0,-150,-62,-150,-191xm451,-177v0,-129,26,-191,150,-191v124,0,150,62,150,191v0,129,-26,191,-150,191v-124,0,-150,-62,-150,-191xm557,-181v0,80,4,119,44,119v40,0,44,-39,44,-119v0,-72,-4,-111,-44,-111v-40,0,-44,39,-44,111","w":778},"&":{"d":"319,-380r107,145v15,-31,25,-78,25,-108r124,0v0,77,-30,150,-73,211r94,132r-153,0r-40,-55v-36,43,-101,69,-172,69v-180,0,-219,-126,-219,-206v0,-84,55,-150,144,-206v-33,-46,-82,-121,-73,-166v0,-92,75,-150,182,-150v123,0,178,66,178,149v0,72,-40,125,-124,185xm343,-143r-120,-170v-55,43,-73,77,-73,121v0,44,35,94,100,94v38,0,69,-15,93,-45xm201,-568v0,24,33,75,53,102v30,-22,71,-66,71,-100v0,-39,-26,-60,-63,-60v-35,0,-61,21,-61,58","w":593},"(":{"d":"190,-714r106,0v-83,153,-114,279,-114,449v0,170,31,296,114,449r-106,0v-99,-157,-140,-308,-140,-449v0,-141,41,-292,140,-449","w":296},")":{"d":"0,-714r106,0v99,157,140,308,140,449v0,141,-41,292,-140,449r-106,0v83,-153,114,-279,114,-449v0,-170,-31,-296,-114,-449","w":296},"*":{"d":"154,-714r82,0r0,128r122,-40r25,78r-122,40r76,104r-67,48r-75,-104r-75,104r-67,-48r76,-104r-122,-40r25,-78r122,40r0,-128","w":390},"+":{"d":"238,0r0,-191r-191,0r0,-124r191,0r0,-191r124,0r0,191r191,0r0,124r-191,0r0,191r-124,0","w":600},",":{"d":"54,-156r132,0v-1,154,21,311,-132,321r0,-70v40,-9,55,-48,52,-95r-52,0r0,-156","w":240,"k":{" ":37}},"-":{"d":"44,-348r282,0r0,118r-282,0r0,-118","w":370},".":{"d":"54,-156r132,0r0,156r-132,0r0,-156","w":240,"k":{" ":37}},"\/":{"d":"-3,14r226,-742r112,0r-226,742r-112,0","w":332},"0":{"d":"18,-330v0,-196,11,-378,222,-378v172,0,222,93,222,344v0,196,-11,378,-222,378v-172,0,-222,-93,-222,-344xm162,-376r0,77v0,179,17,219,78,219v63,0,78,-56,78,-238r0,-77v0,-179,-17,-219,-78,-219v-63,0,-78,56,-78,238"},"1":{"d":"326,0r-144,0r0,-500r-141,0r0,-94v102,3,164,-31,179,-114r106,0r0,708"},"2":{"d":"454,-112r0,112r-436,0v-11,-149,107,-271,214,-364v64,-56,74,-90,74,-162v0,-59,-23,-88,-70,-88v-71,0,-80,63,-80,138r-138,0v-7,-151,58,-231,220,-232v143,0,212,70,212,193v0,92,-30,152,-110,225v-49,44,-142,122,-153,178r267,0"},"3":{"d":"20,-207r138,0v1,83,16,127,79,127v69,0,79,-52,79,-114v0,-63,-14,-121,-93,-121r-48,0r0,-94r47,0v60,0,82,-54,82,-112v0,-67,-22,-93,-69,-93v-62,0,-73,48,-73,115r-132,0v0,-140,73,-209,208,-209v129,0,204,57,204,182v0,88,-44,138,-108,158v92,15,126,78,126,167v0,96,-39,215,-235,215v-138,0,-206,-83,-205,-221"},"4":{"d":"14,-147r0,-118r235,-443r149,0r0,449r68,0r0,112r-68,0r0,147r-132,0r0,-147r-252,0xm266,-259r0,-269r-2,0r-138,269r140,0"},"5":{"d":"425,-694r0,112r-261,0v-3,52,-15,113,-13,161v27,-37,69,-53,130,-53v136,0,173,114,173,226v0,156,-46,262,-227,262v-189,0,-211,-114,-209,-216r138,0v0,47,8,116,70,116v59,0,84,-46,84,-138v0,-117,-19,-150,-83,-150v-41,0,-63,25,-68,65r-129,0r26,-385r369,0"},"6":{"d":"165,-220v0,81,12,140,79,140v69,0,78,-60,78,-140v0,-96,-22,-134,-78,-134v-57,0,-79,38,-79,134xm449,-528r-138,0v0,-55,-17,-86,-65,-86v-85,0,-94,112,-86,215v24,-37,70,-61,133,-61v125,0,173,93,173,221v0,163,-70,253,-229,253v-198,0,-223,-158,-223,-331v0,-200,4,-391,238,-391v102,0,194,44,197,180"},"7":{"d":"22,-694r436,0r0,110v-117,165,-184,384,-208,584r-151,0v21,-171,83,-381,221,-570r-298,0r0,-124"},"8":{"d":"158,-202v0,68,17,122,82,122v65,0,82,-54,82,-122v0,-68,-17,-122,-82,-122v-65,0,-82,54,-82,122xm170,-517v0,67,27,99,70,99v43,0,70,-32,70,-99v0,-65,-23,-97,-70,-97v-47,0,-70,32,-70,97xm14,-200v0,-92,44,-156,120,-177v-77,-19,-102,-86,-102,-136v0,-139,79,-195,208,-195v129,0,208,56,208,195v0,52,-32,115,-102,138v80,16,120,86,120,175v0,81,-29,214,-226,214v-197,0,-226,-133,-226,-214"},"9":{"d":"158,-474v0,96,22,134,78,134v57,0,79,-38,79,-134v0,-81,-12,-140,-79,-140v-69,0,-78,60,-78,140xm31,-165r138,0v0,53,17,85,65,85v84,0,94,-111,86,-214v-24,36,-70,60,-133,60v-125,0,-173,-93,-173,-221v0,-163,70,-253,229,-253v197,0,223,158,223,331v0,201,-5,391,-238,391v-102,0,-194,-43,-197,-179"},":":{"d":"54,-365r0,-156r132,0r0,156r-132,0xm54,0r0,-156r132,0r0,156r-132,0","w":240},";":{"d":"54,-521r132,0r0,156r-132,0r0,-156xm54,-156r132,0v-1,154,21,311,-132,321r0,-70v40,-9,55,-48,52,-95r-52,0r0,-156","w":240},"\u037e":{"d":"54,-521r132,0r0,156r-132,0r0,-156xm54,-156r132,0v-1,154,21,311,-132,321r0,-70v40,-9,55,-48,52,-95r-52,0r0,-156","w":240},"<":{"d":"47,-200r0,-106r506,-208r0,124r-338,137r338,137r0,124","w":600},"=":{"d":"47,-82r0,-124r506,0r0,124r-506,0xm47,-300r0,-124r506,0r0,124r-506,0","w":600},">":{"d":"47,8r0,-124r338,-137r-338,-137r0,-124r506,208r0,106","w":600},"?":{"d":"162,-132r138,0r0,132r-138,0r0,-132xm168,-493r-132,0v-6,-137,58,-225,198,-229v215,-6,269,214,148,349v-42,47,-99,91,-89,175r-124,0v-13,-114,39,-178,100,-239v52,-52,59,-189,-30,-191v-59,-2,-75,62,-71,135","w":481},"@":{"d":"522,-488r13,-53r88,0r-58,250v-6,33,-16,61,14,61v39,0,104,-69,104,-174v0,-133,-127,-230,-266,-230v-157,0,-276,134,-276,278v0,153,131,276,283,276v92,0,162,-31,217,-64r89,0v-71,100,-179,158,-330,158v-205,0,-371,-166,-371,-371v0,-205,166,-371,371,-371v200,0,371,120,371,303v0,211,-186,286,-251,286v-42,0,-59,-22,-67,-53v-27,28,-67,53,-120,53v-71,0,-146,-63,-146,-170v0,-122,83,-246,214,-246v51,0,92,20,121,67xm299,-326v0,44,28,81,71,81v68,0,116,-68,116,-128v0,-43,-34,-76,-75,-76v-64,0,-112,68,-112,123","w":800},"A":{"d":"277,-590r-69,321r140,0r-69,-321r-2,0xm0,0r189,-714r178,0r189,714r-150,0r-33,-151r-190,0r-33,151r-150,0","w":556,"k":{"\u00ff":18,"\u00fd":18,"\u00dd":55,"y":18,"w":18,"v":18,"Y":55,"W":10,"V":10,"T":55}},"B":{"d":"194,-321r0,215v98,4,173,-2,172,-108v-1,-109,-74,-110,-172,-107xm194,-608r0,187v92,5,156,-11,156,-94v0,-88,-65,-98,-156,-93xm50,0r0,-714r241,0v118,0,203,44,203,181v0,79,-40,133,-108,158v80,11,130,70,130,166v0,112,-55,209,-223,209r-243,0","w":556},"C":{"d":"499,-473r-144,0v0,-104,-21,-149,-86,-149v-72,0,-90,72,-90,275v0,216,30,255,92,255v51,0,90,-26,90,-181r144,0v0,155,-38,287,-227,287v-216,0,-243,-154,-243,-371v0,-217,27,-371,243,-371v206,0,221,151,221,255","w":537,"k":{"\u00c3":18,"\u00c5":18,"\u00c0":18,"\u00c4":18,"\u00c2":18,"\u00c1":18,"A":18}},"D":{"d":"201,-608r0,502v162,10,184,-27,184,-257v0,-162,-14,-245,-123,-245r-61,0xm57,0r0,-714r236,0v199,0,236,136,236,347v0,252,-54,367,-245,367r-227,0","w":574,"k":{"\u00dd":55,"\u00c3":34,"\u00c5":34,"\u00c0":34,"\u00c4":34,"\u00c2":34,"\u00c1":34,"Y":55,"A":34,".":24,",":24}},"E":{"d":"50,-714r399,0r0,118r-255,0r0,168r240,0r0,118r-240,0r0,192r265,0r0,118r-409,0r0,-714","w":481},"F":{"d":"50,0r0,-714r399,0r0,118r-255,0r0,168r240,0r0,118r-240,0r0,310r-144,0","w":463,"k":{"\u00e8":20,"\u00eb":20,"\u00ea":20,"\u00e9":20,"\u00e3":20,"\u00e5":20,"\u00e0":20,"\u00e4":20,"\u00e2":20,"\u00e1":20,"\u00c3":37,"\u00c5":37,"\u00c0":37,"\u00c4":37,"\u00c2":37,"\u00c1":37,"e":20,"a":20,"A":37,".":111,",":111}},"G":{"d":"505,-502r-138,0v0,-52,-23,-120,-82,-120v-69,0,-98,71,-98,250v0,172,16,280,99,280v35,0,89,-37,89,-114r0,-73r-95,0r0,-106r233,0r0,385r-106,0v-2,-21,4,-49,-2,-66v-35,56,-82,80,-150,80v-177,0,-212,-132,-212,-379v0,-240,56,-363,240,-363v157,0,222,81,222,226","w":556},"H":{"d":"50,0r0,-714r144,0r0,273r168,0r0,-273r144,0r0,714r-144,0r0,-317r-168,0r0,317r-144,0","w":556},"I":{"d":"201,0r-144,0r0,-714r144,0r0,714","w":258},"J":{"d":"275,-714r144,0r0,514v0,152,-70,214,-215,214v-164,0,-193,-106,-189,-240r132,0v-2,76,5,134,64,134v52,0,64,-36,64,-112r0,-510","w":463},"K":{"d":"50,-714r144,0r0,286r2,0r182,-286r156,0r-194,306r216,408r-162,0r-147,-293r-53,81r0,212r-144,0r0,-714","w":537},"L":{"d":"449,0r-399,0r0,-714r144,0r0,596r255,0r0,118","w":463,"k":{"\u00ff":37,"\u00fd":37,"\u00dd":92,"y":37,"Y":92,"W":74,"V":74,"T":74}},"M":{"d":"53,0r0,-714r214,0r102,504r2,0r103,-504r213,0r0,714r-132,0r0,-570r-2,0r-127,570r-112,0r-127,-570r-2,0r0,570r-132,0","w":740},"N":{"d":"50,-714r166,0r174,489r2,0r0,-489r132,0r0,714r-164,0r-176,-500r-2,0r0,500r-132,0r0,-714","w":574},"O":{"d":"35,-357v0,-217,27,-371,243,-371v216,0,243,154,243,371v0,217,-27,371,-243,371v-216,0,-243,-154,-243,-371xm179,-357v0,192,14,265,99,265v85,0,99,-73,99,-265v0,-191,-14,-265,-99,-265v-85,0,-99,74,-99,265","w":556,"k":{"\u00dd":24,"\u00c3":24,"\u00c5":24,"\u00c0":24,"\u00c4":24,"\u00c2":24,"\u00c1":24,"Y":24,"T":24,"A":24,".":24,",":24}},"P":{"d":"194,-608r0,217v95,6,160,-6,160,-107v0,-71,-28,-110,-100,-110r-60,0xm50,0r0,-714r252,0v147,0,196,107,196,214v-1,177,-123,228,-304,215r0,285r-144,0","w":519,"k":{"\u00f5":24,"\u00f2":24,"\u00f6":24,"\u00f4":24,"\u00f3":24,"\u00e8":24,"\u00eb":24,"\u00ea":24,"\u00e9":24,"\u00e3":24,"\u00e5":24,"\u00e0":24,"\u00e4":24,"\u00e2":24,"\u00e1":24,"\u00c3":54,"\u00c5":54,"\u00c0":54,"\u00c4":54,"\u00c2":54,"\u00c1":54,"o":24,"e":24,"a":24,"A":54,".":150,",":150}},"Q":{"d":"179,-357v0,192,14,265,99,265v85,0,99,-73,99,-265v0,-191,-14,-265,-99,-265v-85,0,-99,74,-99,265xm373,0v-28,10,-56,14,-95,14v-216,0,-243,-154,-243,-371v0,-217,27,-371,243,-371v216,0,243,154,243,371v0,121,-8,222,-55,290r77,78r-85,77","w":556},"R":{"d":"50,0r0,-714r266,0v119,0,190,61,190,184v0,99,-42,156,-119,178v98,13,112,67,115,218v1,76,5,113,32,128r0,6r-156,0v-56,-80,40,-301,-107,-302r-77,0r0,302r-144,0xm194,-608r0,206v98,5,168,-5,168,-107v0,-93,-72,-106,-168,-99","w":556,"k":{"\u00dd":18,"\u00d9":-10,"\u00dc":-10,"\u00db":-10,"\u00da":-10,"Y":18,"W":-10,"U":-10,"T":18}},"S":{"d":"22,-223r144,0v-2,78,11,131,95,131v44,0,86,-28,86,-88v0,-64,-32,-90,-128,-122v-128,-43,-187,-98,-187,-216v0,-140,84,-210,221,-210v135,0,229,61,221,212r-138,0v0,-68,-22,-106,-78,-106v-65,0,-82,40,-82,83v0,44,13,71,74,97r111,48v108,48,136,101,136,189v0,151,-92,219,-248,219v-175,0,-234,-83,-227,-237","w":519},"T":{"d":"12,-714r456,0r0,118r-156,0r0,596r-144,0r0,-596r-156,0r0,-118","k":{"\u00ff":55,"\u00fd":55,"\u00f9":74,"\u00fc":74,"\u00fb":74,"\u00fa":74,"\u00f5":74,"\u00f2":74,"\u00f6":74,"\u00f4":74,"\u00f3":74,"\u00e8":74,"\u00eb":74,"\u00ea":74,"\u00e9":74,"\u00e3":74,"\u00e5":74,"\u00e0":74,"\u00e4":74,"\u00e2":74,"\u00e1":74,"\u00c3":55,"\u00c5":55,"\u00c0":55,"\u00c4":55,"\u00c2":55,"\u00c1":55,"y":55,"w":74,"u":74,"r":74,"o":74,"i":18,"e":74,"a":74,"A":55,";":74,":":74,".":92,"-":55,",":92}},"U":{"d":"41,-714r144,0r0,498v0,71,16,124,84,124v68,0,84,-53,84,-124r0,-498r144,0r0,498v0,181,-111,230,-228,230v-117,0,-228,-39,-228,-230r0,-498","w":538},"V":{"d":"3,-714r154,0r101,528r3,0r106,-528r149,0r-164,714r-185,0","w":519,"k":{"\u00f9":30,"\u00fc":30,"\u00fb":30,"\u00fa":30,"\u00f5":24,"\u00f2":24,"\u00f6":24,"\u00f4":24,"\u00f3":24,"\u00e8":24,"\u00eb":24,"\u00ea":24,"\u00e9":24,"\u00e3":18,"\u00e5":18,"\u00e0":18,"\u00e4":18,"\u00e2":18,"\u00e1":18,"\u00c3":37,"\u00c5":37,"\u00c0":37,"\u00c4":37,"\u00c2":37,"\u00c1":37,"u":30,"o":24,"i":24,"e":24,"a":18,"A":37,";":18,":":18,".":72,"-":18,",":92}},"W":{"d":"138,0r-130,-714r138,0r79,528r2,0r84,-528r138,0r84,528r2,0r79,-528r138,0r-130,714r-161,0r-80,-518r-2,0r-80,518r-161,0","w":760,"k":{"\u00f5":18,"\u00f2":18,"\u00f6":18,"\u00f4":18,"\u00f3":18,"\u00e8":18,"\u00eb":18,"\u00ea":18,"\u00e9":18,"\u00e3":18,"\u00e5":18,"\u00e0":18,"\u00e4":18,"\u00e2":18,"\u00e1":18,"\u00c3":18,"\u00c5":18,"\u00c0":18,"\u00c4":18,"\u00c2":18,"\u00c1":18,"o":18,"e":18,"a":18,"A":18,".":74,"-":18,",":74}},"X":{"d":"184,-361r-164,-353r159,0r92,231r91,-231r157,0r-166,353r178,361r-162,0r-103,-242r-102,242r-158,0","w":537},"Y":{"d":"3,-714r162,0r94,276r2,0r100,-276r156,0r-185,433r0,281r-144,0r0,-281","w":520,"k":{"\u00f9":60,"\u00fc":60,"\u00fb":60,"\u00fa":60,"\u00f5":80,"\u00f2":80,"\u00f6":80,"\u00f4":80,"\u00f3":80,"\u00e8":80,"\u00eb":80,"\u00ea":80,"\u00e9":80,"\u00e3":80,"\u00e5":80,"\u00e0":80,"\u00e4":80,"\u00e2":80,"\u00e1":80,"\u00d5":20,"\u00d2":20,"\u00d6":20,"\u00d4":20,"\u00d3":20,"\u00c3":55,"\u00c5":55,"\u00c0":55,"\u00c4":55,"\u00c2":55,"\u00c1":55,"u":60,"o":80,"i":24,"e":80,"a":80,"S":18,"O":20,"A":55,";":37,":":37,".":111,"-":74,",":111}},"Z":{"d":"24,0r0,-105r263,-491r-245,0r0,-118r411,0r0,109r-267,487r271,0r0,118r-433,0","w":481},"[":{"d":"80,184r0,-898r229,0r0,100r-105,0r0,698r105,0r0,100r-229,0","w":315},"\\":{"d":"223,14r-226,-742r112,0r226,742r-112,0","w":332},"]":{"d":"6,184r0,-100r105,0r0,-698r-105,0r0,-100r229,0r0,898r-229,0","w":315},"^":{"d":"180,-309r-124,0r188,-385r112,0r188,385r-124,0r-120,-247","w":600},"_":{"d":"500,125r-500,0r0,-50r500,0r0,50","w":500},"a":{"d":"169,-373r-124,0v-5,-132,81,-179,189,-179v164,0,195,68,195,165r0,283v0,51,4,72,17,104r-132,0v-11,-16,-10,-41,-19,-56v-32,56,-70,70,-137,70v-96,0,-130,-82,-130,-154v0,-102,42,-140,136,-168v51,-15,133,-18,133,-84v0,-41,-17,-66,-64,-66v-48,0,-67,33,-64,85xm297,-163r0,-106v-19,15,-42,23,-59,27v-56,12,-78,39,-78,87v0,41,15,75,52,75v37,0,85,-23,85,-83","w":481,"k":{"w":-10}},"b":{"d":"46,0r0,-714r138,0r0,226r2,0v29,-43,64,-64,116,-64v113,0,165,83,165,283v0,200,-52,283,-165,283v-57,0,-89,-24,-124,-71r0,57r-132,0xm184,-269v0,117,12,177,73,177v60,0,72,-60,72,-177v0,-117,-12,-177,-72,-177v-61,0,-73,60,-73,177","w":500},"c":{"d":"437,-344r-132,0v0,-52,-10,-108,-62,-108v-68,0,-79,60,-79,184v0,133,13,188,74,188v47,0,67,-38,67,-126r132,0v0,141,-58,220,-205,220v-138,0,-206,-67,-206,-283v0,-221,90,-283,218,-283v128,0,193,80,193,208","w":463,"k":{"\u00ff":10,"\u00fd":10,"y":10,"l":20}},"d":{"d":"322,0v-2,-18,4,-43,-2,-57v-31,51,-67,71,-122,71v-113,0,-165,-83,-165,-283v0,-200,52,-283,165,-283v54,0,86,25,118,64r0,-226r138,0r0,714r-132,0xm171,-269v0,117,12,177,72,177v61,0,73,-60,73,-177v0,-117,-12,-177,-73,-177v-60,0,-72,60,-72,177","w":500},"e":{"d":"437,-248r-273,0v-3,77,4,168,68,168v47,0,65,-33,73,-101r124,0v-5,125,-63,195,-195,195v-200,0,-208,-154,-208,-288v0,-144,28,-278,214,-278v172,0,200,127,197,304xm164,-330r141,0v-3,-82,-13,-128,-70,-128v-62,0,-73,66,-71,128","w":463,"k":{"x":10}},"f":{"d":"76,0r0,-444r-70,0r0,-94r70,0r0,-61v-3,-126,100,-138,218,-126r0,98v-42,-4,-80,0,-80,42r0,47r80,0r0,94r-80,0r0,444r-138,0","w":296,"k":{"\u00e3":20,"\u00e5":20,"\u00e0":20,"\u00e4":20,"\u00e2":20,"\u00e1":20,"a":20}},"g":{"d":"173,-252v0,74,10,140,69,140v59,0,75,-63,75,-154v0,-131,-17,-180,-72,-180v-61,0,-72,49,-72,194xm174,40v-1,34,34,55,67,56v80,3,82,-91,74,-168v-28,40,-71,66,-115,66v-109,0,-165,-76,-165,-272v0,-126,20,-274,169,-274v41,0,83,22,113,74r0,-60r132,0r0,511v0,143,-63,211,-224,211v-117,0,-183,-52,-183,-144r132,0","w":500,"k":{"\u00ff":-10,"\u00fd":-10,"y":-10}},"h":{"d":"46,0r0,-714r138,0r0,231r2,0v27,-47,72,-69,131,-69v87,0,137,46,137,153r0,399r-138,0r0,-371v0,-55,-18,-75,-59,-75v-49,0,-73,30,-73,89r0,357r-138,0","w":500},"i":{"d":"51,-604r0,-118r138,0r0,118r-138,0xm51,0r0,-538r138,0r0,538r-138,0","w":240},"j":{"d":"51,-604r0,-118r138,0r0,118r-138,0xm51,-10r0,-528r138,0r0,575v0,91,-35,139,-158,139v-16,0,-36,-1,-56,-2r0,-100v58,10,76,-13,76,-84","w":240},"k":{"d":"51,-714r138,0r0,377r2,0r139,-201r152,0r-155,212r178,326r-152,0r-115,-221r-49,64r0,157r-138,0r0,-714","w":500},"l":{"d":"51,0r0,-714r138,0r0,714r-138,0","w":240},"m":{"d":"46,0r0,-538r132,0v2,17,-4,42,2,55v57,-98,231,-91,262,17v21,-57,71,-86,136,-86v92,0,134,57,134,161r0,391r-138,0r0,-376v0,-45,-15,-70,-54,-70v-44,0,-72,29,-72,92r0,354r-138,0r0,-376v0,-45,-15,-70,-54,-70v-44,0,-72,29,-72,92r0,354r-138,0","w":758},"n":{"d":"46,0r0,-538r132,0v2,20,-4,47,2,63v29,-53,78,-77,137,-77v87,0,137,46,137,153r0,399r-138,0r0,-371v0,-55,-18,-75,-59,-75v-49,0,-73,30,-73,89r0,357r-138,0","w":500,"k":{"\u00ff":-10,"\u00fd":-10,"y":-10}},"o":{"d":"28,-269v0,-184,55,-283,212,-283v165,0,212,95,212,283v0,184,-55,283,-212,283v-165,0,-212,-95,-212,-283xm166,-269v0,110,6,189,74,189v56,0,74,-54,74,-189v0,-135,-18,-189,-74,-189v-68,0,-74,79,-74,189","k":{"v":-10}},"p":{"d":"46,176r0,-714r132,0v2,18,-4,43,2,57v31,-51,67,-71,122,-71v113,0,165,83,165,283v0,200,-52,283,-165,283v-54,0,-86,-25,-118,-64r0,226r-138,0xm184,-269v0,117,12,177,73,177v60,0,72,-60,72,-177v0,-117,-12,-177,-72,-177v-61,0,-73,60,-73,177","w":500,"k":{".":18,",":18}},"q":{"d":"316,176r0,-226r-2,0v-29,43,-64,64,-116,64v-113,0,-165,-83,-165,-283v0,-200,52,-283,165,-283v57,0,89,24,124,71r0,-57r132,0r0,714r-138,0xm316,-269v0,-117,-12,-177,-73,-177v-60,0,-72,60,-72,177v0,117,12,177,72,177v61,0,73,-60,73,-177","w":500},"r":{"d":"46,0r0,-538r132,0v2,23,-4,53,2,72v33,-59,75,-95,149,-84r0,132v-77,-9,-145,5,-145,95r0,323r-138,0","w":333,"k":{"\u00ff":-18,"\u00fd":-18,"y":-18,"v":-18,"q":16,".":74,"-":37,",":74}},"s":{"d":"23,-176r124,0v-4,58,19,96,72,96v43,0,70,-21,70,-64v0,-73,-93,-73,-147,-96v-74,-32,-115,-74,-115,-150v0,-88,57,-162,198,-162v134,0,190,60,184,175r-124,0v0,-55,-16,-81,-61,-81v-35,0,-65,19,-65,58v0,55,95,74,143,91v87,30,119,73,119,154v0,113,-84,169,-200,169v-164,0,-201,-69,-198,-190","w":444},"t":{"d":"76,-538r0,-154r138,0r0,154r80,0r0,94r-80,0r0,291v-6,57,31,64,80,57r0,96v-31,3,-58,6,-90,6v-108,0,-128,-34,-128,-142r0,-308r-70,0r0,-94r70,0","w":296},"u":{"d":"322,0v-2,-20,4,-47,-2,-63v-29,53,-78,77,-137,77v-87,0,-137,-46,-137,-153r0,-399r138,0r0,371v0,55,18,75,59,75v49,0,73,-30,73,-89r0,-357r138,0r0,538r-132,0","w":500},"v":{"d":"228,-153r73,-385r138,0r-135,538r-160,0r-139,-538r144,0r77,385r2,0","w":444,"k":{"\u00e3":16,"\u00e5":16,"\u00e0":16,"\u00e4":16,"\u00e2":16,"\u00e1":16,"a":16,".":55,",":55}},"w":{"d":"124,0r-117,-538r138,0r63,382r2,0r67,-382r150,0r71,382r2,0r65,-382r132,0r-116,538r-157,0r-71,-382r-2,0r-67,382r-160,0","w":704,"k":{".":37,",":37}},"x":{"d":"231,-376r74,-162r144,0r-140,261r146,277r-144,0r-80,-176r-80,176r-144,0r146,-277r-140,-261r144,0","w":462},"y":{"d":"46,176r0,-103v64,13,110,-11,110,-73r-151,-538r144,0r80,372r2,0r70,-372r138,0r-130,502v-54,211,-88,215,-263,212","w":444,"k":{"\u00e3":16,"\u00e5":16,"\u00e0":16,"\u00e4":16,"\u00e2":16,"\u00e1":16,"a":16,".":55,",":55}},"z":{"d":"24,0r0,-106r215,-320r-205,0r0,-112r368,0r0,106r-215,320r215,0r0,112r-378,0","w":426},"{":{"d":"30,-224r0,-82v33,0,66,-34,66,-81r0,-193v0,-85,36,-134,104,-134r89,0r0,100v-54,-8,-69,18,-69,72r0,166v2,63,-33,99,-72,112v43,8,72,50,72,110r0,166v-1,53,14,81,69,72r0,100r-89,0v-68,0,-104,-49,-104,-134r0,-193v0,-47,-33,-81,-66,-81","w":315},"|":{"d":"49,14r0,-742r124,0r0,742r-124,0","w":222},"}":{"d":"26,184r0,-100v54,8,69,-18,69,-72r0,-166v-2,-63,33,-99,72,-112v-43,-8,-72,-50,-72,-110r0,-166v1,-53,-14,-81,-69,-72r0,-100r89,0v68,0,104,49,104,134r0,193v0,47,33,81,66,81r0,82v-33,0,-66,34,-66,81r0,193v0,85,-36,134,-104,134r-89,0","w":315},"~":{"d":"192,-349v66,0,169,68,213,68v39,0,79,-43,90,-68r36,106v-27,51,-64,86,-123,86v-68,0,-170,-68,-213,-68v-39,0,-79,43,-90,68r-36,-106v27,-51,64,-86,123,-86","w":600},"\u00a1":{"d":"79,-406r0,-132r138,0r0,132r-138,0xm79,176r0,-232r19,-283r100,0r19,283r0,232r-138,0","w":296},"\u00a2":{"d":"222,102r0,-88v-107,-5,-189,-57,-189,-279v0,-151,29,-274,189,-287r0,-76r52,0r0,76v85,5,173,42,173,204r-132,0v0,-41,-5,-90,-41,-104r0,366v39,-23,41,-82,41,-123r132,0v0,133,-50,208,-173,223r0,88r-52,0xm222,-86r0,-366v-44,16,-51,77,-51,181v0,80,0,169,51,185"},"\u00a3":{"d":"9,-306r0,-82r67,0v-93,-157,-45,-320,169,-320v136,0,215,62,218,207r-132,0v0,-61,-19,-113,-78,-113v-63,0,-84,39,-84,79v0,30,36,114,54,147r167,0r0,82r-141,0v16,87,-8,128,-85,195v9,4,31,-5,49,-5v27,0,80,30,114,30v21,0,60,-13,104,-42r44,94v-49,32,-99,48,-149,48v-47,0,-122,-36,-182,-36v-33,0,-58,8,-98,28r-41,-86v81,-56,141,-128,106,-226r-102,0"},"\u00a5":{"d":"178,0r0,-159r-142,0r0,-82r142,0v1,-27,0,-52,-11,-66r-131,0r0,-82r92,0r-145,-305r149,0r107,269r2,0r112,-269r144,0r-145,305r92,0r0,82r-131,0v-11,15,-12,39,-11,66r142,0r0,82r-142,0r0,159r-124,0"},"\u00a7":{"d":"165,-272r99,54v15,8,27,16,39,25v71,-63,65,-112,-21,-157r-96,-51v-62,37,-80,97,-21,129xm306,-566v-1,-46,-19,-69,-69,-68v-39,0,-62,25,-62,57v0,23,17,45,64,69v97,50,229,73,229,219v0,49,-31,116,-78,142v33,27,54,65,54,124v0,120,-75,175,-204,175v-143,0,-206,-69,-202,-189r132,0v-4,58,25,96,70,95v47,0,66,-34,66,-67v0,-37,-17,-61,-64,-84r-123,-59v-140,-58,-137,-236,-16,-297v-40,-30,-60,-68,-60,-114v0,-119,90,-165,205,-165v136,0,190,68,190,162r-132,0","w":481},"\u00a4":{"d":"117,-347v0,80,48,129,123,129v75,0,123,-49,123,-129v0,-80,-48,-129,-123,-129v-75,0,-123,49,-123,129xm61,-107r-61,-62r50,-50v-50,-71,-52,-184,0,-256r-50,-50r61,-62r51,50v72,-52,185,-51,256,0r51,-50r61,62r-50,50v51,72,52,184,0,256r50,50r-61,62r-51,-51v-71,51,-183,55,-256,0"},"'":{"d":"68,-393r0,-321r124,0r0,321r-124,0","w":260},"\u00ab":{"d":"52,-208r0,-162r149,-120r0,132r-79,69r79,69r0,132xm225,-208r0,-162r149,-120r0,132r-79,69r79,69r0,132","w":426},"\u00b7":{"d":"23,-282v0,-55,42,-97,97,-97v55,0,97,42,97,97v0,55,-42,97,-97,97v-55,0,-97,-42,-97,-97","w":240},"\u00b6":{"d":"182,138r0,-473v-119,0,-181,-65,-181,-186v0,-261,246,-179,466,-193r0,852r-106,0r0,-758r-73,0r0,758r-106,0"},"\u00bb":{"d":"225,-88r0,-132r79,-69r-79,-69r0,-132r149,120r0,162xm52,-88r0,-132r79,-69r-79,-69r0,-132r149,120r0,162","w":426},"\u00bf":{"d":"319,-406r-138,0r0,-132r138,0r0,132xm313,-45r132,0v6,137,-58,225,-198,229v-215,6,-269,-214,-148,-349v42,-47,99,-91,89,-175r124,0v13,114,-39,178,-100,239v-52,52,-59,189,30,191v59,2,75,-62,71,-135","w":481},"`":{"d":"176,-602r-94,0r-98,-144r138,0","w":222},"\u00b4":{"d":"46,-602r54,-144r138,0r-98,144r-94,0","w":222},"\u00af":{"d":"-36,-712r294,0r0,76r-294,0r0,-76","w":222},"\u00a8":{"d":"141,-615r0,-118r112,0r0,118r-112,0xm-31,-615r0,-118r112,0r0,118r-112,0","w":222},"\u00b8":{"d":"95,0r52,0r-38,58v56,-17,117,9,117,67v0,59,-45,92,-126,92v-44,0,-84,-10,-100,-19r19,-46v28,17,116,27,119,-18v2,-31,-51,-39,-78,-26r-22,-20","w":222},"\u00c6":{"d":"234,-269r120,0r0,-333r-9,0xm-5,0r269,-714r463,0r0,118r-235,0r0,168r220,0r0,118r-220,0r0,192r245,0r0,118r-383,0r0,-151r-159,0r-50,151r-150,0","w":759},"\u00aa":{"d":"193,-537v-30,20,-83,19,-83,64v0,23,9,42,32,42v23,0,51,-12,51,-47r0,-59xm293,-609v0,77,-11,177,11,235r-100,0v-7,-11,-8,-24,-11,-35v-23,35,-47,42,-94,42v-67,0,-89,-49,-89,-92v0,-87,71,-103,147,-114v52,-8,45,-71,-1,-71v-30,1,-43,18,-41,48r-94,0v-5,-84,51,-112,137,-112v115,0,135,41,135,99","w":314},"\u00d8":{"d":"83,30r30,-70v-67,-61,-78,-176,-78,-317v0,-217,27,-371,243,-371v49,0,89,8,121,24r26,-61r48,21r-30,70v67,61,78,176,78,317v0,217,-27,371,-243,371v-50,0,-90,-8,-121,-24r-26,61xm369,-505r-161,376v13,25,37,37,70,37v85,0,99,-73,99,-265v0,-60,3,-113,-8,-148xm187,-209r161,-377v-15,-24,-38,-36,-70,-36v-85,0,-99,74,-99,265v0,62,-3,115,8,148","w":556},"\u00ba":{"d":"112,-537v0,61,5,106,45,106v33,0,45,-30,45,-106v0,-76,-12,-107,-45,-107v-40,0,-45,46,-45,107xm12,-537v0,-112,35,-171,145,-171v115,0,145,57,145,171v0,111,-35,170,-145,170v-115,0,-145,-57,-145,-170","w":314},"\u00e6":{"d":"168,-373r-124,0v-5,-132,81,-180,189,-179v72,0,110,15,139,64v20,-41,68,-64,127,-64v171,-2,199,127,196,304r-271,0v-3,77,4,168,67,168v45,0,64,-34,72,-101r124,0v-5,125,-65,195,-194,195v-99,0,-144,-46,-162,-93v-43,80,-89,93,-174,93v-96,0,-130,-82,-130,-154v0,-102,42,-140,136,-168v51,-15,133,-18,133,-84v0,-41,-17,-66,-64,-66v-48,0,-67,33,-64,85xm424,-330r139,0v-3,-83,-13,-128,-69,-128v-60,0,-73,66,-70,128xm296,-163r0,-106v-19,15,-42,23,-59,27v-56,12,-78,39,-78,87v0,41,15,75,52,75v37,0,85,-23,85,-83","w":722},"\u00f8":{"d":"53,35r37,-70v-47,-45,-62,-123,-62,-234v0,-184,55,-283,212,-283v45,0,81,6,109,21r34,-65r44,23r-37,70v47,45,62,123,62,234v0,184,-55,283,-212,283v-45,0,-82,-6,-109,-21r-34,65xm310,-351r-124,238v11,22,29,33,54,33v56,0,74,-54,74,-189v0,-31,3,-64,-4,-82xm170,-186r123,-238v-11,-23,-28,-34,-53,-34v-87,0,-79,168,-70,272"},"\u00df":{"d":"179,0r-138,0r0,-527v0,-140,67,-201,212,-201v127,0,197,59,197,171v0,74,-19,117,-89,147r0,2v80,13,111,84,111,192v0,98,-27,222,-179,222v-23,0,-51,-1,-66,-4r0,-94v84,19,109,-43,107,-142v-2,-83,-24,-130,-105,-121r0,-94v62,6,83,-32,83,-95v0,-47,-14,-90,-66,-90v-55,0,-67,46,-67,110r0,524","w":500},"\u00b9":{"d":"115,-280r0,-290r-91,0r0,-70v65,2,108,-19,117,-68r86,0r0,428r-112,0","w":312},"\u00ac":{"d":"429,-98r0,-202r-382,0r0,-124r506,0r0,326r-124,0","w":600},"\u00b5":{"d":"316,-181r0,-357r138,0r0,538r-132,0v-2,-20,4,-47,-2,-63v-39,62,-82,91,-136,69r0,170r-138,0r0,-714r138,0r0,371v0,55,18,75,59,75v49,0,73,-30,73,-89","w":500},"\u00d0":{"d":"201,-608r0,187r93,0r0,106r-93,0r0,209v162,10,184,-27,184,-257v0,-162,-14,-245,-123,-245r-61,0xm57,0r0,-315r-57,0r0,-106r57,0r0,-293r236,0v199,0,236,136,236,347v0,252,-54,367,-245,367r-227,0","w":574},"\u00bd":{"d":"721,0r-312,0v0,-76,26,-135,101,-188v36,-26,99,-67,99,-117v0,-27,-16,-47,-43,-47v-43,0,-51,41,-51,73r-106,0v-6,-101,34,-149,160,-149v107,0,152,43,152,108v0,55,-14,90,-66,130v-33,25,-106,76,-110,108r176,0r0,82xm91,-280r0,-290r-91,0r0,-70v65,2,108,-19,117,-68r86,0r0,428r-112,0xm72,31r406,-756r89,0r-406,756r-89,0","w":721},"\u00b1":{"d":"47,0r0,-124r506,0r0,124r-506,0xm238,-398r0,-108r124,0r0,108r191,0r0,124r-191,0r0,108r-124,0r0,-108r-191,0r0,-124r191,0","w":600},"\u00de":{"d":"194,-480r0,217v95,6,160,-6,160,-107v0,-71,-28,-110,-100,-110r-60,0xm50,0r0,-714r144,0r0,128r108,0v147,0,196,107,196,214v-1,177,-123,228,-304,215r0,157r-144,0","w":519},"\u00bc":{"d":"91,-280r0,-290r-91,0r0,-70v65,2,108,-19,117,-68r86,0r0,428r-112,0xm96,31r406,-756r89,0r-406,756r-89,0xm401,-77r0,-91r152,-260r124,0r0,269r44,0r0,82r-44,0r0,77r-106,0r0,-77r-170,0xm571,-159v-2,-47,4,-102,-2,-145r-86,145r88,0","w":721},"\u00f7":{"d":"203,-41v0,-55,42,-97,97,-97v55,0,97,42,97,97v0,55,-42,97,-97,97v-55,0,-97,-42,-97,-97xm203,-465v0,-55,42,-97,97,-97v55,0,97,42,97,97v0,55,-42,97,-97,97v-55,0,-97,-42,-97,-97xm47,-191r0,-124r506,0r0,124r-506,0","w":600},"\u00a6":{"d":"49,-457r0,-271r124,0r0,271r-124,0xm49,14r0,-271r124,0r0,271r-124,0","w":222},"\u00b0":{"d":"128,-560v0,40,32,72,72,72v40,0,72,-32,72,-72v0,-40,-32,-72,-72,-72v-40,0,-72,32,-72,72xm52,-560v0,-83,65,-148,148,-148v83,0,148,65,148,148v0,83,-65,148,-148,148v-83,0,-148,-65,-148,-148","w":400},"\u00fe":{"d":"46,176r0,-890r138,0r0,233r2,0v24,-51,61,-71,116,-71v113,0,165,83,165,283v0,200,-52,283,-165,283v-54,0,-86,-25,-118,-64r0,226r-138,0xm184,-269v0,117,12,177,73,177v60,0,72,-60,72,-177v0,-117,-12,-177,-72,-177v-61,0,-73,60,-73,177","w":500},"\u00be":{"d":"7,-572v0,-92,50,-136,145,-136v100,0,148,33,148,109v0,55,-30,83,-70,97v60,11,82,47,82,100v0,57,-25,129,-169,129v-104,-1,-146,-51,-143,-143r106,0v1,37,12,67,49,67v32,0,45,-24,45,-53v0,-28,-8,-63,-60,-63r-28,0r0,-70v49,6,82,-16,82,-53v0,-25,-17,-44,-41,-44v-37,0,-46,28,-46,60r-100,0xm135,31r406,-756r89,0r-406,756r-89,0xm483,-159r88,0v-2,-47,4,-102,-2,-145xm401,-77r0,-91r152,-260r124,0r0,269r44,0r0,82r-44,0r0,77r-106,0r0,-77r-170,0","w":721},"\u00b2":{"d":"312,-280r-312,0v0,-76,26,-135,101,-188v36,-26,99,-67,99,-117v0,-27,-16,-47,-43,-47v-43,0,-51,41,-51,73r-106,0v-6,-101,34,-149,160,-149v107,0,152,43,152,108v0,55,-14,90,-66,130v-33,25,-106,76,-110,108r176,0r0,82","w":312},"\u00ae":{"d":"141,-357v0,145,110,265,259,265v149,0,259,-120,259,-265v0,-145,-110,-265,-259,-265v-149,0,-259,120,-259,265xm29,-357v0,-205,166,-371,371,-371v205,0,371,166,371,371v0,205,-166,371,-371,371v-205,0,-371,-166,-371,-371xm343,-487r0,99v60,-3,137,17,134,-50v-3,-64,-75,-46,-134,-49xm255,-157r0,-400r156,0v104,0,154,44,154,124v0,67,-43,104,-99,111r99,165r-96,0r-94,-161r-32,0r0,161r-88,0","w":800},"\u00f0":{"d":"105,-583r-39,-42r76,-45r-66,-64r104,-61v24,21,46,42,67,63r75,-45r43,42r-77,45v106,117,164,237,164,421v0,184,-55,283,-212,283v-165,0,-212,-95,-212,-283v0,-160,51,-263,174,-263v23,0,47,7,70,26r2,-2v-24,-39,-57,-80,-92,-120xm166,-262v0,107,6,182,74,182v56,0,74,-53,74,-182v0,-124,-18,-176,-74,-176v-68,0,-74,76,-74,176"},"\u00d7":{"d":"59,-98r156,-155r-156,-155r86,-86r155,156r155,-156r86,86r-156,155r156,155r-86,86r-155,-156r-155,156","w":600},"\u00b3":{"d":"7,-572v0,-92,50,-136,145,-136v100,0,148,33,148,109v0,55,-30,83,-70,97v60,11,82,47,82,100v0,57,-25,129,-169,129v-104,-1,-146,-51,-143,-143r106,0v1,37,12,67,49,67v32,0,45,-24,45,-53v0,-28,-8,-63,-60,-63r-28,0r0,-70v49,6,82,-16,82,-53v0,-25,-17,-44,-41,-44v-37,0,-46,28,-46,60r-100,0","w":312},"\u00a9":{"d":"29,-357v0,-205,166,-371,371,-371v205,0,371,166,371,371v0,205,-166,371,-371,371v-205,0,-371,-166,-371,-371xm141,-357v0,145,110,265,259,265v149,0,259,-120,259,-265v0,-145,-110,-265,-259,-265v-149,0,-259,120,-259,265xm495,-298r100,0v-16,100,-94,156,-180,156v-127,0,-207,-97,-207,-218v0,-123,76,-218,204,-218v89,0,166,53,179,153r-96,0v-11,-39,-37,-67,-88,-67v-69,0,-105,56,-105,132v0,72,39,132,104,132v49,0,82,-27,89,-70","w":800},"\u00c1":{"d":"277,-590r-69,321r140,0r-69,-321r-2,0xm0,0r189,-714r178,0r189,714r-150,0r-33,-151r-190,0r-33,151r-150,0xm212,-756r54,-144r138,0r-98,144r-94,0","w":556,"k":{"\u00ff":18,"\u00fd":18,"\u00dd":55,"y":18,"w":18,"v":18,"Y":55,"W":10,"V":10,"T":55}},"\u00c2":{"d":"277,-590r-69,321r140,0r-69,-321r-2,0xm0,0r189,-714r178,0r189,714r-150,0r-33,-151r-190,0r-33,151r-150,0xm127,-756r78,-144r144,0r78,144r-106,0r-46,-85r-48,85r-100,0","w":556,"k":{"\u00ff":18,"\u00fd":18,"\u00dd":55,"y":18,"w":18,"v":18,"Y":55,"W":10,"V":10,"T":55}},"\u00c4":{"d":"277,-590r-69,321r140,0r-69,-321r-2,0xm0,0r189,-714r178,0r189,714r-150,0r-33,-151r-190,0r-33,151r-150,0xm308,-771r0,-118r112,0r0,118r-112,0xm136,-771r0,-118r112,0r0,118r-112,0","w":556,"k":{"\u00ff":18,"\u00fd":18,"\u00dd":55,"y":18,"w":18,"v":18,"Y":55,"W":10,"V":10,"T":55}},"\u00c0":{"d":"277,-590r-69,321r140,0r-69,-321r-2,0xm0,0r189,-714r178,0r189,714r-150,0r-33,-151r-190,0r-33,151r-150,0xm340,-756r-94,0r-98,-144r138,0","w":556,"k":{"\u00ff":18,"\u00fd":18,"\u00dd":55,"y":18,"w":18,"v":18,"Y":55,"W":10,"V":10,"T":55}},"\u00c5":{"d":"277,-590r-69,321r140,0r-69,-321r-2,0xm0,0r189,-714r178,0r189,714r-150,0r-33,-151r-190,0r-33,151r-150,0xm222,-844v0,32,25,57,57,57v32,0,57,-25,57,-57v0,-32,-25,-57,-57,-57v-32,0,-57,25,-57,57xm166,-844v0,-65,51,-110,113,-110v62,0,113,45,113,110v0,66,-51,108,-113,108v-64,0,-113,-42,-113,-108","w":556,"k":{"\u00ff":18,"\u00fd":18,"\u00dd":55,"y":18,"w":18,"v":18,"Y":55,"W":10,"V":10,"T":55}},"\u00c3":{"d":"277,-590r-69,321r140,0r-69,-321r-2,0xm0,0r189,-714r178,0r189,714r-150,0r-33,-151r-190,0r-33,151r-150,0xm191,-765r-70,0v14,-97,56,-143,136,-117v25,8,47,26,78,27v19,0,28,-23,28,-36r72,0v-7,72,-42,124,-93,124v-59,0,-132,-79,-151,2","w":556,"k":{"\u00ff":18,"\u00fd":18,"\u00dd":55,"y":18,"w":18,"v":18,"Y":55,"W":10,"V":10,"T":55}},"\u00c7":{"d":"244,12v-184,-15,-209,-163,-209,-369v0,-217,27,-371,243,-371v206,0,221,151,221,255r-144,0v0,-104,-21,-149,-86,-149v-72,0,-90,72,-90,275v0,216,30,255,92,255v51,0,90,-26,90,-181r144,0v4,154,-48,283,-210,287r-29,44v56,-17,117,9,117,67v0,59,-45,92,-126,92v-44,0,-84,-10,-100,-19r19,-46v28,17,116,27,119,-18v2,-31,-51,-39,-78,-26r-22,-20","w":537,"k":{"\u00c3":18,"\u00c5":18,"\u00c0":18,"\u00c4":18,"\u00c2":18,"\u00c1":18,"A":18}},"\u00c9":{"d":"50,-714r399,0r0,118r-255,0r0,168r240,0r0,118r-240,0r0,192r265,0r0,118r-409,0r0,-714xm199,-756r54,-144r138,0r-98,144r-94,0","w":481},"\u00ca":{"d":"50,-714r399,0r0,118r-255,0r0,168r240,0r0,118r-240,0r0,192r265,0r0,118r-409,0r0,-714xm101,-756r78,-144r144,0r78,144r-106,0r-46,-85r-48,85r-100,0","w":481},"\u00cb":{"d":"50,-714r399,0r0,118r-255,0r0,168r240,0r0,118r-240,0r0,192r265,0r0,118r-409,0r0,-714xm278,-769r0,-118r112,0r0,118r-112,0xm106,-769r0,-118r112,0r0,118r-112,0","w":481},"\u00c8":{"d":"50,-714r399,0r0,118r-255,0r0,168r240,0r0,118r-240,0r0,192r265,0r0,118r-409,0r0,-714xm319,-756r-94,0r-98,-144r138,0","w":481},"\u00cd":{"d":"201,0r-144,0r0,-714r144,0r0,714xm58,-756r54,-144r138,0r-98,144r-94,0","w":258},"\u00ce":{"d":"201,0r-144,0r0,-714r144,0r0,714xm-19,-756r78,-144r144,0r78,144r-106,0r-46,-85r-48,85r-100,0","w":258},"\u00cf":{"d":"201,0r-144,0r0,-714r144,0r0,714xm160,-769r0,-118r112,0r0,118r-112,0xm-12,-769r0,-118r112,0r0,118r-112,0","w":258},"\u00cc":{"d":"201,0r-144,0r0,-714r144,0r0,714xm202,-756r-94,0r-98,-144r138,0","w":258},"\u00d1":{"d":"50,-714r166,0r174,489r2,0r0,-489r132,0r0,714r-164,0r-176,-500r-2,0r0,500r-132,0r0,-714xm202,-765r-70,0v14,-97,56,-143,136,-117v25,8,47,26,78,27v19,0,28,-23,28,-36r72,0v-7,72,-42,124,-93,124v-59,0,-132,-79,-151,2","w":574},"\u00d3":{"d":"35,-357v0,-217,27,-371,243,-371v216,0,243,154,243,371v0,217,-27,371,-243,371v-216,0,-243,-154,-243,-371xm179,-357v0,192,14,265,99,265v85,0,99,-73,99,-265v0,-191,-14,-265,-99,-265v-85,0,-99,74,-99,265xm227,-756r54,-144r138,0r-98,144r-94,0","w":556,"k":{"\u00dd":24,"\u00c3":24,"\u00c5":24,"\u00c0":24,"\u00c4":24,"\u00c2":24,"\u00c1":24,"Y":24,"T":24,"A":24,".":24,",":24}},"\u00d4":{"d":"35,-357v0,-217,27,-371,243,-371v216,0,243,154,243,371v0,217,-27,371,-243,371v-216,0,-243,-154,-243,-371xm179,-357v0,192,14,265,99,265v85,0,99,-73,99,-265v0,-191,-14,-265,-99,-265v-85,0,-99,74,-99,265xm130,-756r78,-144r144,0r78,144r-106,0r-46,-85r-48,85r-100,0","w":556,"k":{"\u00dd":24,"\u00c3":24,"\u00c5":24,"\u00c0":24,"\u00c4":24,"\u00c2":24,"\u00c1":24,"Y":24,"T":24,"A":24,".":24,",":24}},"\u00d6":{"d":"35,-357v0,-217,27,-371,243,-371v216,0,243,154,243,371v0,217,-27,371,-243,371v-216,0,-243,-154,-243,-371xm179,-357v0,192,14,265,99,265v85,0,99,-73,99,-265v0,-191,-14,-265,-99,-265v-85,0,-99,74,-99,265xm309,-769r0,-118r112,0r0,118r-112,0xm137,-769r0,-118r112,0r0,118r-112,0","w":556,"k":{"\u00dd":24,"\u00c3":24,"\u00c5":24,"\u00c0":24,"\u00c4":24,"\u00c2":24,"\u00c1":24,"Y":24,"T":24,"A":24,".":24,",":24}},"\u00d2":{"d":"35,-357v0,-217,27,-371,243,-371v216,0,243,154,243,371v0,217,-27,371,-243,371v-216,0,-243,-154,-243,-371xm179,-357v0,192,14,265,99,265v85,0,99,-73,99,-265v0,-191,-14,-265,-99,-265v-85,0,-99,74,-99,265xm340,-756r-94,0r-98,-144r138,0","w":556,"k":{"\u00dd":24,"\u00c3":24,"\u00c5":24,"\u00c0":24,"\u00c4":24,"\u00c2":24,"\u00c1":24,"Y":24,"T":24,"A":24,".":24,",":24}},"\u00d5":{"d":"35,-357v0,-217,27,-371,243,-371v216,0,243,154,243,371v0,217,-27,371,-243,371v-216,0,-243,-154,-243,-371xm179,-357v0,192,14,265,99,265v85,0,99,-73,99,-265v0,-191,-14,-265,-99,-265v-85,0,-99,74,-99,265xm190,-765r-70,0v14,-97,56,-143,136,-117v25,8,47,26,78,27v19,0,28,-23,28,-36r72,0v-7,72,-42,124,-93,124v-59,0,-132,-79,-151,2","w":556,"k":{"\u00dd":24,"\u00c3":24,"\u00c5":24,"\u00c0":24,"\u00c4":24,"\u00c2":24,"\u00c1":24,"Y":24,"T":24,"A":24,".":24,",":24}},"\u00da":{"d":"41,-714r144,0r0,498v0,71,16,124,84,124v68,0,84,-53,84,-124r0,-498r144,0r0,498v0,181,-111,230,-228,230v-117,0,-228,-39,-228,-230r0,-498xm220,-756r54,-144r138,0r-98,144r-94,0","w":538},"\u00db":{"d":"41,-714r144,0r0,498v0,71,16,124,84,124v68,0,84,-53,84,-124r0,-498r144,0r0,498v0,181,-111,230,-228,230v-117,0,-228,-39,-228,-230r0,-498xm120,-756r78,-144r144,0r78,144r-106,0r-46,-85r-48,85r-100,0","w":538},"\u00dc":{"d":"41,-714r144,0r0,498v0,71,16,124,84,124v68,0,84,-53,84,-124r0,-498r144,0r0,498v0,181,-111,230,-228,230v-117,0,-228,-39,-228,-230r0,-498xm299,-769r0,-118r112,0r0,118r-112,0xm127,-769r0,-118r112,0r0,118r-112,0","w":538},"\u00d9":{"d":"41,-714r144,0r0,498v0,71,16,124,84,124v68,0,84,-53,84,-124r0,-498r144,0r0,498v0,181,-111,230,-228,230v-117,0,-228,-39,-228,-230r0,-498xm333,-756r-94,0r-98,-144r138,0","w":538},"\u00dd":{"d":"3,-714r162,0r94,276r2,0r100,-276r156,0r-185,433r0,281r-144,0r0,-281xm216,-758r54,-144r138,0r-98,144r-94,0","w":520,"k":{"\u00f9":60,"\u00fc":60,"\u00fb":60,"\u00fa":60,"\u00f5":80,"\u00f2":80,"\u00f6":80,"\u00f4":80,"\u00f3":80,"\u00e8":80,"\u00eb":80,"\u00ea":80,"\u00e9":80,"\u00e3":80,"\u00e5":80,"\u00e0":80,"\u00e4":80,"\u00e2":80,"\u00e1":80,"\u00d5":20,"\u00d2":20,"\u00d6":20,"\u00d4":20,"\u00d3":20,"\u00c3":55,"\u00c5":55,"\u00c0":55,"\u00c4":55,"\u00c2":55,"\u00c1":55,"u":60,"o":80,"i":24,"e":80,"a":80,"S":18,"O":20,"A":55,";":37,":":37,".":111,"-":74,",":111}},"\u00e1":{"d":"169,-373r-124,0v-5,-132,81,-179,189,-179v164,0,195,68,195,165r0,283v0,51,4,72,17,104r-132,0v-11,-16,-10,-41,-19,-56v-32,56,-70,70,-137,70v-96,0,-130,-82,-130,-154v0,-102,42,-140,136,-168v51,-15,133,-18,133,-84v0,-41,-17,-66,-64,-66v-48,0,-67,33,-64,85xm297,-163r0,-106v-19,15,-42,23,-59,27v-56,12,-78,39,-78,87v0,41,15,75,52,75v37,0,85,-23,85,-83xm190,-602r54,-144r138,0r-98,144r-94,0","w":481,"k":{"w":-10}},"\u00e2":{"d":"169,-373r-124,0v-5,-132,81,-179,189,-179v164,0,195,68,195,165r0,283v0,51,4,72,17,104r-132,0v-11,-16,-10,-41,-19,-56v-32,56,-70,70,-137,70v-96,0,-130,-82,-130,-154v0,-102,42,-140,136,-168v51,-15,133,-18,133,-84v0,-41,-17,-66,-64,-66v-48,0,-67,33,-64,85xm297,-163r0,-106v-19,15,-42,23,-59,27v-56,12,-78,39,-78,87v0,41,15,75,52,75v37,0,85,-23,85,-83xm90,-602r78,-144r144,0r78,144r-106,0r-46,-85r-48,85r-100,0","w":481,"k":{"w":-10}},"\u00e4":{"d":"169,-373r-124,0v-5,-132,81,-179,189,-179v164,0,195,68,195,165r0,283v0,51,4,72,17,104r-132,0v-11,-16,-10,-41,-19,-56v-32,56,-70,70,-137,70v-96,0,-130,-82,-130,-154v0,-102,42,-140,136,-168v51,-15,133,-18,133,-84v0,-41,-17,-66,-64,-66v-48,0,-67,33,-64,85xm297,-163r0,-106v-19,15,-42,23,-59,27v-56,12,-78,39,-78,87v0,41,15,75,52,75v37,0,85,-23,85,-83xm271,-615r0,-118r112,0r0,118r-112,0xm99,-615r0,-118r112,0r0,118r-112,0","w":481,"k":{"w":-10}},"\u00e0":{"d":"169,-373r-124,0v-5,-132,81,-179,189,-179v164,0,195,68,195,165r0,283v0,51,4,72,17,104r-132,0v-11,-16,-10,-41,-19,-56v-32,56,-70,70,-137,70v-96,0,-130,-82,-130,-154v0,-102,42,-140,136,-168v51,-15,133,-18,133,-84v0,-41,-17,-66,-64,-66v-48,0,-67,33,-64,85xm297,-163r0,-106v-19,15,-42,23,-59,27v-56,12,-78,39,-78,87v0,41,15,75,52,75v37,0,85,-23,85,-83xm308,-602r-94,0r-98,-144r138,0","w":481,"k":{"w":-10}},"\u00e5":{"d":"169,-373r-124,0v-5,-132,81,-179,189,-179v164,0,195,68,195,165r0,283v0,51,4,72,17,104r-132,0v-11,-16,-10,-41,-19,-56v-32,56,-70,70,-137,70v-96,0,-130,-82,-130,-154v0,-102,42,-140,136,-168v51,-15,133,-18,133,-84v0,-41,-17,-66,-64,-66v-48,0,-67,33,-64,85xm297,-163r0,-106v-19,15,-42,23,-59,27v-56,12,-78,39,-78,87v0,41,15,75,52,75v37,0,85,-23,85,-83xm180,-690v0,32,25,57,57,57v32,0,57,-25,57,-57v0,-32,-25,-57,-57,-57v-32,0,-57,25,-57,57xm124,-690v0,-65,51,-110,113,-110v62,0,113,45,113,110v0,66,-51,108,-113,108v-64,0,-113,-42,-113,-108","w":481,"k":{"w":-10}},"\u00e3":{"d":"169,-373r-124,0v-5,-132,81,-179,189,-179v164,0,195,68,195,165r0,283v0,51,4,72,17,104r-132,0v-11,-16,-10,-41,-19,-56v-32,56,-70,70,-137,70v-96,0,-130,-82,-130,-154v0,-102,42,-140,136,-168v51,-15,133,-18,133,-84v0,-41,-17,-66,-64,-66v-48,0,-67,33,-64,85xm297,-163r0,-106v-19,15,-42,23,-59,27v-56,12,-78,39,-78,87v0,41,15,75,52,75v37,0,85,-23,85,-83xm155,-611r-70,0v14,-97,56,-143,136,-117v25,8,47,26,78,27v19,0,28,-23,28,-36r72,0v-7,72,-42,124,-93,124v-59,0,-132,-79,-151,2","w":481,"k":{"w":-10}},"\u00e7":{"d":"209,13v-142,-13,-183,-85,-183,-282v0,-221,90,-283,218,-283v128,0,193,80,193,208r-132,0v0,-52,-10,-108,-62,-108v-68,0,-79,60,-79,184v0,133,13,188,74,188v47,0,67,-38,67,-126r132,0v-1,132,-51,209,-176,219r-29,45v56,-17,117,9,117,67v0,59,-45,92,-126,92v-44,0,-84,-10,-100,-19r19,-46v28,17,116,27,119,-18v2,-31,-51,-39,-78,-26r-22,-20","w":463,"k":{"\u00ff":10,"\u00fd":10,"y":10,"l":20}},"\u00e9":{"d":"437,-248r-273,0v-3,77,4,168,68,168v47,0,65,-33,73,-101r124,0v-5,125,-63,195,-195,195v-200,0,-208,-154,-208,-288v0,-144,28,-278,214,-278v172,0,200,127,197,304xm164,-330r141,0v-3,-82,-13,-128,-70,-128v-62,0,-73,66,-71,128xm190,-602r54,-144r138,0r-98,144r-94,0","w":463,"k":{"x":10}},"\u00ea":{"d":"437,-248r-273,0v-3,77,4,168,68,168v47,0,65,-33,73,-101r124,0v-5,125,-63,195,-195,195v-200,0,-208,-154,-208,-288v0,-144,28,-278,214,-278v172,0,200,127,197,304xm164,-330r141,0v-3,-82,-13,-128,-70,-128v-62,0,-73,66,-71,128xm90,-602r78,-144r144,0r78,144r-106,0r-46,-85r-48,85r-100,0","w":463,"k":{"x":10}},"\u00eb":{"d":"437,-248r-273,0v-3,77,4,168,68,168v47,0,65,-33,73,-101r124,0v-5,125,-63,195,-195,195v-200,0,-208,-154,-208,-288v0,-144,28,-278,214,-278v172,0,200,127,197,304xm164,-330r141,0v-3,-82,-13,-128,-70,-128v-62,0,-73,66,-71,128xm270,-615r0,-118r112,0r0,118r-112,0xm98,-615r0,-118r112,0r0,118r-112,0","w":463,"k":{"x":10}},"\u00e8":{"d":"437,-248r-273,0v-3,77,4,168,68,168v47,0,65,-33,73,-101r124,0v-5,125,-63,195,-195,195v-200,0,-208,-154,-208,-288v0,-144,28,-278,214,-278v172,0,200,127,197,304xm164,-330r141,0v-3,-82,-13,-128,-70,-128v-62,0,-73,66,-71,128xm302,-602r-94,0r-98,-144r138,0","w":463,"k":{"x":10}},"\u00ed":{"d":"51,0r0,-538r138,0r0,538r-138,0xm51,-602r54,-144r138,0r-98,144r-94,0","w":240},"\u00ee":{"d":"51,0r0,-538r138,0r0,538r-138,0xm-29,-602r78,-144r144,0r78,144r-106,0r-46,-85r-48,85r-100,0","w":240},"\u00ef":{"d":"51,0r0,-538r138,0r0,538r-138,0xm150,-615r0,-118r112,0r0,118r-112,0xm-22,-615r0,-118r112,0r0,118r-112,0","w":240},"\u00ec":{"d":"51,0r0,-538r138,0r0,538r-138,0xm188,-602r-94,0r-98,-144r138,0","w":240},"\u00f1":{"d":"46,0r0,-538r132,0v2,20,-4,47,2,63v29,-53,78,-77,137,-77v87,0,137,46,137,153r0,399r-138,0r0,-371v0,-55,-18,-75,-59,-75v-49,0,-73,30,-73,89r0,357r-138,0xm156,-611r-70,0v14,-97,56,-143,136,-117v25,8,47,26,78,27v19,0,28,-23,28,-36r72,0v-7,72,-42,124,-93,124v-59,0,-132,-79,-151,2","w":500,"k":{"\u00ff":-10,"\u00fd":-10,"y":-10}},"\u00f3":{"d":"28,-269v0,-184,55,-283,212,-283v165,0,212,95,212,283v0,184,-55,283,-212,283v-165,0,-212,-95,-212,-283xm166,-269v0,110,6,189,74,189v56,0,74,-54,74,-189v0,-135,-18,-189,-74,-189v-68,0,-74,79,-74,189xm191,-602r54,-144r138,0r-98,144r-94,0","k":{"v":-10}},"\u00f4":{"d":"28,-269v0,-184,55,-283,212,-283v165,0,212,95,212,283v0,184,-55,283,-212,283v-165,0,-212,-95,-212,-283xm166,-269v0,110,6,189,74,189v56,0,74,-54,74,-189v0,-135,-18,-189,-74,-189v-68,0,-74,79,-74,189xm90,-602r78,-144r144,0r78,144r-106,0r-46,-85r-48,85r-100,0","k":{"v":-10}},"\u00f6":{"d":"28,-269v0,-184,55,-283,212,-283v165,0,212,95,212,283v0,184,-55,283,-212,283v-165,0,-212,-95,-212,-283xm166,-269v0,110,6,189,74,189v56,0,74,-54,74,-189v0,-135,-18,-189,-74,-189v-68,0,-74,79,-74,189xm270,-615r0,-118r112,0r0,118r-112,0xm98,-615r0,-118r112,0r0,118r-112,0","k":{"v":-10}},"\u00f2":{"d":"28,-269v0,-184,55,-283,212,-283v165,0,212,95,212,283v0,184,-55,283,-212,283v-165,0,-212,-95,-212,-283xm166,-269v0,110,6,189,74,189v56,0,74,-54,74,-189v0,-135,-18,-189,-74,-189v-68,0,-74,79,-74,189xm299,-602r-94,0r-98,-144r138,0","k":{"v":-10}},"\u00f5":{"d":"28,-269v0,-184,55,-283,212,-283v165,0,212,95,212,283v0,184,-55,283,-212,283v-165,0,-212,-95,-212,-283xm166,-269v0,110,6,189,74,189v56,0,74,-54,74,-189v0,-135,-18,-189,-74,-189v-68,0,-74,79,-74,189xm153,-611r-70,0v14,-97,56,-143,136,-117v25,8,47,26,78,27v19,0,28,-23,28,-36r72,0v-7,72,-42,124,-93,124v-59,0,-132,-79,-151,2","k":{"v":-10}},"\u00fa":{"d":"322,0v-2,-20,4,-47,-2,-63v-29,53,-78,77,-137,77v-87,0,-137,-46,-137,-153r0,-399r138,0r0,371v0,55,18,75,59,75v49,0,73,-30,73,-89r0,-357r138,0r0,538r-132,0xm200,-602r54,-144r138,0r-98,144r-94,0","w":500},"\u00fb":{"d":"322,0v-2,-20,4,-47,-2,-63v-29,53,-78,77,-137,77v-87,0,-137,-46,-137,-153r0,-399r138,0r0,371v0,55,18,75,59,75v49,0,73,-30,73,-89r0,-357r138,0r0,538r-132,0xm100,-602r78,-144r144,0r78,144r-106,0r-46,-85r-48,85r-100,0","w":500},"\u00fc":{"d":"322,0v-2,-20,4,-47,-2,-63v-29,53,-78,77,-137,77v-87,0,-137,-46,-137,-153r0,-399r138,0r0,371v0,55,18,75,59,75v49,0,73,-30,73,-89r0,-357r138,0r0,538r-132,0xm280,-615r0,-118r112,0r0,118r-112,0xm108,-615r0,-118r112,0r0,118r-112,0","w":500},"\u00f9":{"d":"322,0v-2,-20,4,-47,-2,-63v-29,53,-78,77,-137,77v-87,0,-137,-46,-137,-153r0,-399r138,0r0,371v0,55,18,75,59,75v49,0,73,-30,73,-89r0,-357r138,0r0,538r-132,0xm312,-602r-94,0r-98,-144r138,0","w":500},"\u00fd":{"d":"46,176r0,-103v64,13,110,-11,110,-73r-151,-538r144,0r80,372r2,0r70,-372r138,0r-130,502v-54,211,-88,215,-263,212xm178,-602r54,-144r138,0r-98,144r-94,0","w":444,"k":{"\u00e3":16,"\u00e5":16,"\u00e0":16,"\u00e4":16,"\u00e2":16,"\u00e1":16,"a":16,".":55,",":55}},"\u00ff":{"d":"46,176r0,-103v64,13,110,-11,110,-73r-151,-538r144,0r80,372r2,0r70,-372r138,0r-130,502v-54,211,-88,215,-263,212xm261,-615r0,-118r112,0r0,118r-112,0xm89,-615r0,-118r112,0r0,118r-112,0","w":444,"k":{"\u00e3":16,"\u00e5":16,"\u00e0":16,"\u00e4":16,"\u00e2":16,"\u00e1":16,"a":16,".":55,",":55}},"\r":{"w":0},"\u00a0":{"w":240},"\u00ad":{"d":"44,-348r282,0r0,118r-282,0r0,-118","w":370}}});


/*!
 * The following copyright notice may not be removed under any circumstances.
 *
 * Copyright:
 * Copyright © 1988, 1990, 1993, 2003 Linotype Library GmbH, www.linotype.com. All
 * rights reserved. Copyright © 1988, 1990, 1993 Adobe Systems Incorporated. All
 * Rights Reserved.
 *
 * Trademark:
 * Helvetica, Neue Helvetica is a trademark of Heidelberger Druckmaschinen AG which
 * may be registered in certain jurisdictions, exclusively licensed through
 * Linotype Library GmbH, a wholly owned subsidiary of Heidelberger Druckmaschinen
 * AG.
 *
 * Full name:
 * HelveticaNeueLTPro-BdCnO
 *
 * Description:
 * Copyright © 1988, 1990, 1993, 2003 Linotype Library GmbH, www.linotype.com. All
 * rights reserved. Copyright © 1988, 1990, 1993 Adobe Systems Incorporated. All
 * Rights Reserved.
 *
 * Manufacturer:
 * Linotype Library GmbH
 *
 * Designer:
 * Linotype Library GmbH
 *
 * Vendor URL:
 * http://www.linotype.com
 *
 * License information:
 * http://www.Linotype.com
 */
